227 100
mahasiswa -0.176333 0.076464 0.116708 -0.229461 0.164665 -0.034737 0.205250 0.040498 -0.255965 0.140595 0.054026 -0.289347 0.016804 -0.210803 0.030201 -0.047546 -0.223754 -0.101541 -0.067662 -0.087515 -0.052061 0.257990 -0.128419 0.113404 -0.002103 -0.024196 -0.019271 -0.005589 0.201668 -0.338682 0.014560 -0.195048 -0.159670 0.199529 -0.083518 -0.084813 0.190704 -0.008549 -0.058695 0.196580 -0.010577 -0.015408 -0.113034 0.043842 0.181951 0.113911 0.077778 0.281459 0.189643 -0.343255 0.169122 0.220677 0.070535 0.323662 -0.390568 0.171011 0.047794 0.148529 -0.046585 -0.432578 -0.137040 0.087620 -0.172100 0.100058 0.011968 -0.260505 -0.248288 0.042740 -0.187758 0.011462 0.119058 -0.005191 -0.111731 -0.166259 0.054752 -0.123603 0.187287 0.002764 0.196180 -0.125302 0.314865 0.105598 0.055905 0.459287 0.081120 0.069090 0.355639 0.204185 0.044791 -0.007638 -0.374554 -0.011775 -0.109086 -0.046876 -0.102299 -0.078768 -0.020794 -0.285548 0.037837 0.134688
jurusan -0.127742 0.057222 0.086646 -0.169522 0.123058 -0.023845 0.145560 0.025649 -0.186376 0.098747 0.043552 -0.207894 0.013215 -0.149812 0.030098 -0.033292 -0.166219 -0.077014 -0.045490 -0.070971 -0.032768 0.193452 -0.091078 0.087698 0.003386 -0.022772 -0.017045 -0.009524 0.151635 -0.248001 0.007019 -0.146735 -0.118700 0.144008 -0.062271 -0.063294 0.134673 -0.012215 -0.043570 0.148158 -0.012657 -0.011871 -0.086813 0.036099 0.126907 0.075112 0.058077 0.207238 0.134820 -0.248482 0.115964 0.163424 0.047242 0.231617 -0.285097 0.125024 0.039238 0.104427 -0.036649 -0.321197 -0.091185 0.058497 -0.128302 0.067423 0.012165 -0.192246 -0.184098 0.033699 -0.143164 0.012368 0.087616 -0.003685 -0.083366 -0.118488 0.038626 -0.085204 0.134914 0.003312 0.144783 -0.093640 0.234675 0.074386 0.049407 0.335895 0.061615 0.054557 0.253627 0.151539 0.028676 -0.005619 -0.275818 -0.012249 -0.085730 -0.040076 -0.073359 -0.058624 -0.013810 -0.203313 0.021966 0.099313
magang -0.097395 0.047589 0.061935 -0.130093 0.097553 -0.019900 0.115886 0.022138 -0.152762 0.078112 0.031690 -0.159708 0.008730 -0.117685 0.023872 -0.028963 -0.126382 -0.065935 -0.037882 -0.049556 -0.028821 0.155614 -0.069203 0.068722 -0.004846 -0.021952 -0.014345 -0.008440 0.115827 -0.201350 0.011753 -0.114655 -0.092409 0.116428 -0.048730 -0.047925 0.112851 -0.013237 -0.031822 0.120368 -0.005563 -0.007327 -0.065791 0.020800 0.103504 0.061377 0.048064 0.156720 0.107460 -0.203923 0.097873 0.125222 0.033183 0.186297 -0.221319 0.098459 0.026558 0.090936 -0.029257 -0.250422 -0.076522 0.052089 -0.102628 0.057343 0.012556 -0.149595 -0.148430 0.030224 -0.110057 0.004413 0.070935 -0.006108 -0.062223 -0.096199 0.026494 -0.069457 0.113955 0.005332 0.116572 -0.077171 0.179514 0.063556 0.036555 0.265717 0.043427 0.043735 0.205193 0.122459 0.030894 -0.003736 -0.213376 -0.003129 -0.068441 -0.025999 -0.063211 -0.042866 -0.006565 -0.169085 0.014839 0.080971
terkait -0.118959 0.049354 0.076829 -0.164717 0.121366 -0.024655 0.135554 0.025111 -0.185956 0.099319 0.041989 -0.198941 0.014805 -0.152015 0.024592 -0.031898 -0.154990 -0.073750 -0.050933 -0.068177 -0.030103 0.180633 -0.083713 0.081735 -0.001705 -0.020905 -0.014606 -0.003642 0.150169 -0.243709 0.012075 -0.135125 -0.117908 0.134042 -0.057157 -0.063495 0.128960 -0.011347 -0.040642 0.142457 -0.003109 -0.010794 -0.083085 0.034791 0.118859 0.075721 0.056964 0.197740 0.137445 -0.241259 0.120191 0.155785 0.042520 0.229165 -0.272016 0.118771 0.036312 0.101597 -0.031985 -0.307253 -0.086521 0.059826 -0.120840 0.065843 0.009145 -0.183643 -0.174378 0.035343 -0.133062 0.012461 0.077614 -0.004701 -0.072201 -0.109490 0.034266 -0.085344 0.134902 0.000906 0.135564 -0.093439 0.222267 0.072671 0.044874 0.319301 0.054914 0.048910 0.249741 0.139720 0.028899 -0.002754 -0.265710 -0.010916 -0.077829 -0.030150 -0.066519 -0.062196 -0.015221 -0.197441 0.021474 0.093226
dosen -0.125795 0.054497 0.081857 -0.154310 0.119818 -0.026328 0.136118 0.029642 -0.183404 0.102304 0.040591 -0.203194 0.006474 -0.150792 0.025242 -0.028860 -0.155623 -0.074402 -0.045684 -0.069347 -0.032148 0.180294 -0.090675 0.085436 -0.004365 -0.025282 -0.012119 -0.007990 0.144384 -0.241266 0.006714 -0.142460 -0.108998 0.132256 -0.053841 -0.062313 0.129895 -0.006048 -0.046199 0.141360 -0.009178 -0.013832 -0.074984 0.032975 0.125579 0.071712 0.057694 0.199589 0.134364 -0.233628 0.113625 0.157617 0.044173 0.229868 -0.273969 0.122411 0.035530 0.098274 -0.025067 -0.305964 -0.095685 0.061763 -0.122396 0.068249 0.011264 -0.179727 -0.178111 0.030143 -0.135436 0.008945 0.078869 0.002006 -0.080663 -0.114651 0.031194 -0.084610 0.131169 0.005401 0.139369 -0.087982 0.223289 0.071016 0.047976 0.318690 0.058888 0.052495 0.250035 0.146806 0.030283 -0.010281 -0.254044 -0.007914 -0.082061 -0.029790 -0.074467 -0.055847 -0.014330 -0.199011 0.025482 0.091383
informasi -0.110100 0.039146 0.065491 -0.134651 0.102526 -0.019486 0.123453 0.023299 -0.160350 0.085079 0.034548 -0.168968 0.011979 -0.126197 0.024526 -0.029424 -0.130438 -0.067817 -0.042316 -0.059217 -0.026881 0.162682 -0.071703 0.073862 0.003978 -0.017742 -0.014918 -0.000429 0.124327 -0.203382 0.012674 -0.123429 -0.093128 0.120718 -0.052244 -0.050703 0.114019 -0.012423 -0.037536 0.116608 -0.007096 -0.012691 -0.072843 0.022010 0.105689 0.064815 0.044935 0.165616 0.115756 -0.211112 0.098210 0.135835 0.035338 0.192001 -0.232963 0.106082 0.026630 0.084994 -0.029626 -0.263829 -0.082367 0.048875 -0.109400 0.058687 0.012817 -0.159541 -0.150850 0.025014 -0.112041 0.012494 0.074878 -0.006200 -0.067930 -0.101433 0.033649 -0.071757 0.119260 -0.000719 0.112958 -0.078184 0.196142 0.062244 0.037946 0.271488 0.049772 0.043388 0.210634 0.121037 0.025064 -0.004451 -0.226626 -0.003893 -0.067656 -0.023499 -0.057828 -0.054071 -0.008543 -0.170193 0.016145 0.082969
karir -0.114564 0.042287 0.077672 -0.149261 0.102515 -0.020016 0.133301 0.024951 -0.166658 0.089365 0.034265 -0.186027 0.008179 -0.138226 0.025157 -0.035734 -0.144106 -0.071252 -0.046605 -0.056794 -0.034737 0.171312 -0.079447 0.072765 -0.002004 -0.018548 -0.008380 -0.000581 0.131692 -0.222969 0.004025 -0.131050 -0.102258 0.122314 -0.052727 -0.054052 0.118235 -0.013386 -0.043614 0.131771 -0.009128 -0.013474 -0.070930 0.025146 0.109535 0.070378 0.053483 0.176865 0.121380 -0.219477 0.107166 0.145538 0.047023 0.207659 -0.247266 0.114053 0.026469 0.100216 -0.031877 -0.276924 -0.082908 0.053951 -0.113394 0.066488 0.012234 -0.169633 -0.156227 0.027343 -0.117041 0.008950 0.078376 -0.001114 -0.071108 -0.102754 0.036204 -0.076846 0.125708 0.007273 0.128396 -0.082222 0.206321 0.065513 0.037670 0.294571 0.056165 0.046500 0.230255 0.135335 0.026710 -0.006524 -0.233682 -0.009732 -0.067195 -0.031597 -0.066026 -0.052459 -0.008544 -0.179083 0.020646 0.085622
nya -0.104307 0.045967 0.063125 -0.130829 0.091453 -0.017670 0.111038 0.026569 -0.144380 0.082423 0.033220 -0.163148 0.009583 -0.121493 0.018656 -0.025305 -0.130341 -0.060399 -0.036663 -0.048030 -0.030634 0.149725 -0.072804 0.061443 -0.003242 -0.015559 -0.013051 -0.008861 0.113179 -0.197343 0.006825 -0.113846 -0.086296 0.106666 -0.048018 -0.047519 0.107111 -0.011914 -0.032493 0.112748 -0.003346 -0.013326 -0.059457 0.019961 0.096358 0.064042 0.040154 0.159748 0.105356 -0.193104 0.097214 0.126744 0.040958 0.186986 -0.219973 0.094002 0.030455 0.087363 -0.024247 -0.251865 -0.073489 0.044062 -0.100050 0.057910 0.006301 -0.140715 -0.144641 0.025161 -0.113443 0.007121 0.066739 0.001171 -0.061636 -0.096707 0.025427 -0.070608 0.108309 0.006037 0.104848 -0.078492 0.176765 0.055202 0.038844 0.256084 0.042706 0.037353 0.197519 0.111599 0.025908 -0.002893 -0.216620 -0.003755 -0.066140 -0.030513 -0.060445 -0.042335 -0.011399 -0.162841 0.020875 0.073365
kelas -0.137573 0.054230 0.086300 -0.174257 0.122783 -0.024444 0.149437 0.032270 -0.201488 0.112536 0.040476 -0.216712 0.016577 -0.159437 0.021613 -0.036563 -0.167181 -0.083844 -0.047224 -0.065482 -0.036120 0.203442 -0.101105 0.085441 0.001468 -0.019344 -0.021868 -0.009895 0.159719 -0.260613 0.007115 -0.149385 -0.128399 0.146645 -0.066376 -0.061753 0.146491 -0.010148 -0.047263 0.151306 -0.010994 -0.006807 -0.083319 0.036063 0.132968 0.079051 0.054227 0.218469 0.144255 -0.261178 0.125306 0.170839 0.052799 0.249043 -0.299576 0.128528 0.042204 0.116622 -0.037837 -0.340061 -0.097565 0.066034 -0.131938 0.069591 0.007302 -0.192163 -0.190272 0.032506 -0.148997 0.005945 0.092795 -0.005357 -0.081983 -0.120885 0.037034 -0.091093 0.144115 0.002037 0.150025 -0.101423 0.247065 0.078860 0.048992 0.347293 0.065363 0.048782 0.269582 0.160785 0.037537 -0.005591 -0.288934 -0.009735 -0.080156 -0.038267 -0.076017 -0.059914 -0.013551 -0.220557 0.029609 0.105415
sosialisasi -0.087867 0.033250 0.062634 -0.121508 0.082875 -0.013224 0.098826 0.015970 -0.135471 0.074253 0.031454 -0.149135 0.007713 -0.109414 0.017316 -0.030044 -0.114140 -0.058002 -0.029513 -0.046355 -0.026890 0.137269 -0.069130 0.063932 0.004094 -0.013477 -0.012983 -0.004061 0.107390 -0.170646 0.009310 -0.100083 -0.084304 0.104107 -0.042188 -0.048391 0.098873 -0.008771 -0.035197 0.103103 -0.006907 -0.008654 -0.056592 0.024098 0.087521 0.059768 0.036726 0.143632 0.101464 -0.174071 0.085615 0.108318 0.028978 0.162956 -0.202546 0.091396 0.028651 0.075949 -0.023472 -0.226372 -0.064319 0.045902 -0.088564 0.048404 0.006365 -0.135882 -0.125118 0.024287 -0.100531 0.007435 0.061682 -0.000787 -0.052262 -0.087313 0.021283 -0.061229 0.094029 -0.001977 0.101624 -0.067664 0.167227 0.049746 0.027921 0.228605 0.047594 0.039788 0.176166 0.099484 0.024308 -0.001034 -0.190495 -0.005843 -0.061050 -0.026947 -0.050780 -0.044999 -0.012003 -0.144186 0.013385 0.072765
semester -0.101370 0.046239 0.072130 -0.138002 0.099573 -0.012897 0.116387 0.018377 -0.156351 0.078683 0.035968 -0.170226 0.013022 -0.130227 0.014288 -0.033202 -0.128920 -0.060350 -0.045773 -0.053413 -0.025491 0.150561 -0.076092 0.064212 -0.002747 -0.022234 -0.011518 -0.000419 0.128182 -0.197857 0.004183 -0.113905 -0.092647 0.112131 -0.041991 -0.047267 0.109462 -0.013283 -0.032360 0.123568 -0.005758 -0.006536 -0.068012 0.026678 0.098923 0.065540 0.042690 0.167765 0.106757 -0.207002 0.099117 0.133723 0.038695 0.191782 -0.230048 0.102636 0.032352 0.092259 -0.021601 -0.261045 -0.072083 0.048299 -0.103900 0.055804 0.009210 -0.149712 -0.153681 0.033400 -0.115395 0.006796 0.067489 0.000581 -0.065399 -0.100640 0.032906 -0.067451 0.116134 0.006357 0.119516 -0.075916 0.185788 0.064967 0.035842 0.264837 0.054272 0.036365 0.204839 0.120081 0.027094 -0.007376 -0.223032 -0.000368 -0.068445 -0.023103 -0.058409 -0.050517 -0.014992 -0.169720 0.025239 0.078075
membantu -0.117080 0.048994 0.070153 -0.153618 0.109099 -0.024768 0.133076 0.031205 -0.165463 0.091742 0.034759 -0.183461 0.010200 -0.134831 0.025505 -0.032568 -0.143655 -0.069481 -0.044284 -0.064387 -0.033774 0.175715 -0.081411 0.075618 -0.004883 -0.019046 -0.014091 -0.002629 0.141244 -0.228525 0.010067 -0.131908 -0.105292 0.134265 -0.056942 -0.054212 0.123607 -0.006130 -0.044564 0.132124 -0.002566 -0.008488 -0.072616 0.027368 0.116955 0.076060 0.049352 0.179455 0.124125 -0.229416 0.112764 0.147729 0.047535 0.211191 -0.252087 0.116753 0.035200 0.096863 -0.025065 -0.286061 -0.088077 0.060339 -0.113513 0.066119 0.004612 -0.164598 -0.161317 0.032956 -0.119632 0.010649 0.075450 -0.000925 -0.075484 -0.105113 0.029529 -0.082447 0.126772 0.009088 0.126580 -0.084208 0.208104 0.066239 0.040297 0.293918 0.050318 0.048830 0.227867 0.137291 0.032718 -0.007914 -0.241256 -0.010160 -0.075797 -0.034221 -0.068471 -0.054340 -0.009623 -0.187799 0.022473 0.088642
Saran -0.091147 0.039636 0.056915 -0.121412 0.086789 -0.015005 0.100383 0.021577 -0.133136 0.077138 0.027680 -0.152296 0.008544 -0.108177 0.018866 -0.026807 -0.110751 -0.058029 -0.030507 -0.044561 -0.030604 0.134510 -0.066174 0.062288 0.001036 -0.019595 -0.013472 -0.007594 0.103403 -0.177385 0.007264 -0.101364 -0.082092 0.097999 -0.043260 -0.047225 0.099694 -0.005900 -0.030789 0.098601 -0.005284 -0.006547 -0.061727 0.024543 0.095850 0.057451 0.036983 0.150061 0.101721 -0.181950 0.087892 0.109734 0.036492 0.167805 -0.205693 0.087290 0.021350 0.075258 -0.026264 -0.231361 -0.065879 0.048572 -0.085424 0.048036 0.007304 -0.133879 -0.125257 0.026661 -0.100188 0.007376 0.058870 -0.002341 -0.053384 -0.080524 0.028870 -0.060923 0.101584 0.003813 0.105930 -0.066810 0.164212 0.054000 0.035028 0.241056 0.046021 0.041343 0.180297 0.107863 0.027088 -0.003207 -0.198438 -0.001796 -0.061559 -0.024677 -0.048455 -0.042124 -0.010495 -0.146510 0.013045 0.066779
sesuai -0.107587 0.049202 0.065225 -0.135977 0.104704 -0.015081 0.120380 0.021961 -0.161151 0.082006 0.041361 -0.174575 0.003433 -0.130580 0.016504 -0.028820 -0.130032 -0.069395 -0.041206 -0.052854 -0.030619 0.158657 -0.076584 0.067304 -0.002489 -0.015568 -0.014869 -0.002449 0.128165 -0.204180 0.006257 -0.123845 -0.100889 0.122543 -0.051302 -0.048056 0.110564 -0.007220 -0.036093 0.116878 -0.007264 -0.009094 -0.071414 0.027019 0.103177 0.068372 0.045276 0.168444 0.119726 -0.203547 0.098162 0.139318 0.040195 0.195675 -0.238768 0.106522 0.029298 0.089196 -0.025949 -0.266384 -0.084711 0.054747 -0.106423 0.059863 0.004961 -0.158514 -0.148340 0.030106 -0.117758 0.002096 0.076091 0.001727 -0.066983 -0.099365 0.032444 -0.069266 0.115919 0.003113 0.122187 -0.078910 0.193644 0.068410 0.040521 0.271776 0.053260 0.040303 0.219204 0.119349 0.027758 -0.005395 -0.230537 -0.002423 -0.069834 -0.028085 -0.062834 -0.051941 -0.006983 -0.169947 0.025472 0.078951
minat -0.077505 0.035327 0.049691 -0.098464 0.073326 -0.011584 0.091392 0.014527 -0.109641 0.065733 0.023349 -0.129266 0.007082 -0.088003 0.019779 -0.018602 -0.098065 -0.043259 -0.033381 -0.035988 -0.018244 0.112371 -0.060634 0.053726 -0.000285 -0.012214 -0.007024 -0.004098 0.091515 -0.154749 0.005652 -0.085804 -0.070499 0.089769 -0.032965 -0.039426 0.087075 -0.007300 -0.029048 0.092203 -0.009755 -0.005413 -0.052595 0.016283 0.076118 0.050521 0.037923 0.128976 0.086402 -0.155757 0.074463 0.095268 0.024821 0.139393 -0.169080 0.078476 0.026133 0.070398 -0.019660 -0.196546 -0.060418 0.033758 -0.071812 0.041411 0.004614 -0.110150 -0.114308 0.024765 -0.084396 0.004275 0.055228 0.003006 -0.051035 -0.069931 0.027465 -0.055845 0.083854 0.005818 0.088307 -0.056454 0.143958 0.043704 0.027852 0.203898 0.033909 0.029097 0.162553 0.093093 0.022080 -0.001907 -0.164647 -0.002023 -0.053589 -0.020778 -0.042444 -0.038503 -0.008780 -0.129145 0.018919 0.055717
kuliah -0.105157 0.044799 0.064881 -0.128738 0.095221 -0.017150 0.114508 0.021967 -0.147608 0.079414 0.029445 -0.156113 0.007073 -0.120464 0.015053 -0.025679 -0.130271 -0.055959 -0.038239 -0.056732 -0.032393 0.152793 -0.066260 0.061408 -0.004811 -0.018732 -0.017230 -0.002881 0.118842 -0.194673 0.007545 -0.108766 -0.092382 0.105535 -0.049749 -0.045569 0.106784 -0.005747 -0.037256 0.114547 -0.000819 -0.007323 -0.059207 0.026621 0.100840 0.060671 0.044174 0.153130 0.108300 -0.197288 0.096626 0.128792 0.038558 0.183719 -0.217848 0.094971 0.031632 0.082681 -0.028473 -0.251851 -0.074440 0.043758 -0.092132 0.059031 0.003947 -0.145173 -0.143172 0.031039 -0.105760 0.005495 0.068529 -0.004453 -0.065668 -0.095971 0.028539 -0.070143 0.106909 -0.000823 0.110644 -0.078310 0.176571 0.063524 0.037692 0.253791 0.049027 0.039163 0.205605 0.115879 0.020688 -0.008621 -0.213106 -0.001568 -0.060197 -0.026011 -0.059118 -0.049804 -0.012901 -0.156774 0.023431 0.070150
materi -0.114833 0.047195 0.072240 -0.142465 0.108701 -0.020283 0.128251 0.026035 -0.165176 0.088874 0.041654 -0.183667 0.006678 -0.139051 0.016653 -0.027141 -0.146919 -0.070507 -0.048188 -0.057608 -0.032977 0.167624 -0.082328 0.073640 -0.004024 -0.019466 -0.008954 -0.008753 0.133239 -0.219882 0.004803 -0.130433 -0.109077 0.121705 -0.053398 -0.059064 0.118852 -0.006423 -0.044701 0.126198 -0.011871 -0.011873 -0.070041 0.033953 0.113010 0.070528 0.049513 0.184914 0.126570 -0.215563 0.105894 0.146628 0.044472 0.203643 -0.254227 0.110818 0.031974 0.090056 -0.023625 -0.279553 -0.085404 0.056253 -0.112798 0.058553 0.012087 -0.164427 -0.165520 0.026312 -0.124961 0.007550 0.077013 -0.004663 -0.070057 -0.103946 0.035152 -0.071513 0.126377 0.000046 0.122431 -0.087921 0.207197 0.072677 0.036289 0.294393 0.057866 0.042525 0.230421 0.127855 0.033847 -0.008602 -0.242841 -0.010172 -0.075881 -0.033798 -0.063140 -0.057108 -0.016066 -0.177386 0.018815 0.083889
praktik -0.119874 0.054057 0.081726 -0.160685 0.116471 -0.020176 0.134419 0.030453 -0.177114 0.101382 0.044076 -0.191829 0.011103 -0.141867 0.024691 -0.032320 -0.149150 -0.075248 -0.046113 -0.058102 -0.030495 0.182495 -0.083994 0.076815 0.004448 -0.014364 -0.019687 -0.008785 0.145475 -0.235593 0.011831 -0.134104 -0.109178 0.136220 -0.059328 -0.056693 0.130663 -0.010210 -0.043795 0.134453 -0.011851 -0.005867 -0.075885 0.032641 0.125627 0.073194 0.051126 0.193153 0.127229 -0.231118 0.117143 0.155824 0.045629 0.217436 -0.265638 0.119593 0.031336 0.099670 -0.028850 -0.302397 -0.089702 0.052606 -0.121908 0.065681 0.012038 -0.179928 -0.175319 0.028920 -0.135635 0.010398 0.078053 -0.000864 -0.077056 -0.106839 0.033592 -0.082575 0.132861 0.004740 0.133143 -0.084602 0.223089 0.075478 0.038864 0.315130 0.058771 0.044342 0.237003 0.142347 0.025298 -0.010939 -0.255504 -0.001791 -0.074434 -0.028454 -0.070616 -0.059701 -0.008200 -0.195594 0.019269 0.096297
kegiatan -0.121238 0.050295 0.075060 -0.153797 0.109981 -0.021044 0.129136 0.028280 -0.168354 0.096318 0.041477 -0.190328 0.012116 -0.137975 0.023972 -0.030833 -0.148762 -0.067935 -0.042032 -0.062809 -0.027417 0.177090 -0.088085 0.074045 -0.001519 -0.021018 -0.011791 -0.005689 0.140326 -0.226507 0.007374 -0.132208 -0.107858 0.125196 -0.054294 -0.057210 0.126310 -0.007327 -0.040733 0.127518 -0.003169 -0.012635 -0.070097 0.025878 0.111029 0.072218 0.048671 0.179925 0.127114 -0.223792 0.111608 0.140549 0.038979 0.214970 -0.257888 0.117024 0.030442 0.098505 -0.033031 -0.291428 -0.085150 0.054738 -0.115113 0.060238 0.014055 -0.169198 -0.168522 0.031385 -0.126210 0.004324 0.081852 0.000104 -0.069507 -0.109266 0.037258 -0.080940 0.124783 -0.000284 0.131724 -0.088101 0.206751 0.073905 0.042206 0.298663 0.056857 0.042750 0.229355 0.134254 0.025477 -0.005504 -0.250016 -0.004116 -0.069247 -0.034716 -0.070258 -0.049238 -0.014501 -0.186662 0.020795 0.090727
Mungkin -0.077193 0.031510 0.045348 -0.104148 0.073964 -0.010243 0.082851 0.015667 -0.109375 0.060791 0.030634 -0.121062 0.005650 -0.094281 0.018739 -0.016435 -0.100664 -0.049455 -0.032443 -0.041265 -0.022905 0.112529 -0.059084 0.055019 -0.000285 -0.008481 -0.007619 -0.005809 0.090646 -0.150848 0.002618 -0.084894 -0.069759 0.085431 -0.033126 -0.037294 0.078671 -0.002205 -0.023727 0.091519 -0.002400 -0.010716 -0.051259 0.015179 0.077021 0.049869 0.031721 0.121614 0.086839 -0.154986 0.076012 0.095856 0.032708 0.144854 -0.165418 0.071051 0.017327 0.061970 -0.022422 -0.190583 -0.054789 0.037241 -0.071248 0.036781 0.011561 -0.114260 -0.108504 0.022760 -0.085575 0.002340 0.054268 -0.005041 -0.051787 -0.068104 0.026242 -0.046850 0.081460 0.004283 0.081795 -0.060536 0.143564 0.041205 0.032193 0.200279 0.032400 0.033630 0.150831 0.090657 0.014625 -0.002980 -0.162665 -0.004121 -0.046870 -0.024928 -0.048538 -0.033196 -0.006280 -0.120466 0.013289 0.060740
bidang -0.098387 0.044828 0.064060 -0.128325 0.098675 -0.020932 0.110621 0.023949 -0.146055 0.083206 0.038040 -0.157400 0.010356 -0.121285 0.023099 -0.023306 -0.125484 -0.064513 -0.042639 -0.051726 -0.031788 0.144699 -0.071281 0.069948 -0.001083 -0.020107 -0.011032 -0.006185 0.120342 -0.193738 0.006172 -0.117287 -0.092147 0.107802 -0.046920 -0.048361 0.110212 -0.009138 -0.034846 0.117043 -0.005569 -0.010862 -0.062546 0.027475 0.100752 0.055761 0.046040 0.160644 0.104570 -0.199865 0.094854 0.120669 0.034650 0.186132 -0.222405 0.092806 0.028260 0.079005 -0.026468 -0.247499 -0.074610 0.045355 -0.093470 0.058720 0.009331 -0.143004 -0.143624 0.024773 -0.111171 0.010583 0.063966 -0.003538 -0.057197 -0.090577 0.027422 -0.065772 0.104644 -0.001742 0.110076 -0.077390 0.184431 0.061909 0.032056 0.257933 0.050405 0.036318 0.203888 0.114301 0.026619 -0.005840 -0.211449 -0.009993 -0.064391 -0.028766 -0.056039 -0.049152 -0.011363 -0.164811 0.020062 0.074923
Saya -0.097131 0.039285 0.065823 -0.130762 0.093622 -0.020609 0.117819 0.023968 -0.153338 0.083390 0.034347 -0.159508 0.005273 -0.120199 0.018718 -0.023683 -0.131341 -0.063404 -0.034259 -0.056197 -0.024529 0.153879 -0.074663 0.067745 0.003582 -0.015334 -0.012624 0.000033 0.115183 -0.194965 0.008314 -0.115867 -0.093844 0.116883 -0.048443 -0.045645 0.107930 -0.005139 -0.040024 0.117325 -0.004280 -0.002760 -0.061578 0.020910 0.102913 0.064999 0.049627 0.165588 0.108678 -0.197453 0.095958 0.129160 0.039216 0.191936 -0.220656 0.103775 0.030263 0.084386 -0.021803 -0.248708 -0.074237 0.050227 -0.100505 0.055209 0.004336 -0.152923 -0.149196 0.031848 -0.115320 0.007796 0.072627 -0.002126 -0.059874 -0.095925 0.028779 -0.066636 0.113827 -0.001053 0.115218 -0.070158 0.180951 0.066176 0.032764 0.268364 0.049444 0.041293 0.207044 0.114559 0.027024 -0.001191 -0.215334 -0.004042 -0.061566 -0.030286 -0.062145 -0.049807 -0.011063 -0.158955 0.018048 0.076759
dunia -0.117757 0.043796 0.072857 -0.147588 0.114345 -0.020100 0.126195 0.028697 -0.171219 0.096747 0.034261 -0.186921 0.005867 -0.138774 0.021723 -0.032772 -0.145635 -0.068466 -0.046403 -0.061425 -0.028678 0.173652 -0.085306 0.077674 0.002564 -0.019709 -0.011033 -0.003290 0.138784 -0.226315 0.007626 -0.130337 -0.102740 0.124137 -0.056751 -0.055781 0.126091 -0.007737 -0.040465 0.129542 -0.001476 -0.011784 -0.074162 0.032526 0.119388 0.067778 0.055192 0.186431 0.124619 -0.225050 0.111988 0.142501 0.047532 0.213491 -0.247654 0.110038 0.029270 0.095845 -0.032194 -0.288196 -0.088258 0.052977 -0.107946 0.064319 0.009137 -0.165519 -0.159353 0.033625 -0.120892 0.011823 0.074568 0.000715 -0.074721 -0.108208 0.032261 -0.078662 0.119359 0.003689 0.126592 -0.086510 0.202343 0.066538 0.035974 0.300351 0.056899 0.042735 0.230782 0.133856 0.029208 -0.006573 -0.244055 -0.004761 -0.067837 -0.033609 -0.062989 -0.054961 -0.008298 -0.187897 0.024464 0.083800
pembelajaran -0.075166 0.028836 0.052087 -0.101192 0.068295 -0.008811 0.083277 0.022516 -0.113219 0.059724 0.028659 -0.120338 0.004959 -0.084872 0.012272 -0.024454 -0.092144 -0.045569 -0.024663 -0.040647 -0.021936 0.108237 -0.050684 0.053227 -0.005166 -0.015148 -0.011722 -0.000695 0.089302 -0.146230 0.002706 -0.086067 -0.070917 0.083957 -0.028564 -0.031828 0.079120 -0.008974 -0.025084 0.088878 -0.002893 -0.007107 -0.051171 0.014289 0.075224 0.042551 0.027754 0.113992 0.075017 -0.144201 0.070150 0.094796 0.025791 0.131739 -0.159613 0.069236 0.023432 0.058672 -0.017818 -0.186866 -0.057623 0.033159 -0.069467 0.041807 0.002046 -0.106863 -0.107537 0.015363 -0.081261 0.008728 0.048546 0.002098 -0.042701 -0.073285 0.016176 -0.047770 0.082876 -0.002297 0.081933 -0.051370 0.130031 0.040001 0.021358 0.189058 0.031306 0.026811 0.144714 0.086752 0.015001 -0.004811 -0.157360 -0.004176 -0.043612 -0.018056 -0.040955 -0.029293 -0.004605 -0.120860 0.014243 0.054332
akademik -0.094373 0.040015 0.058145 -0.120802 0.091895 -0.012362 0.106184 0.018415 -0.133928 0.074269 0.029292 -0.154485 0.002395 -0.111480 0.020743 -0.030075 -0.121247 -0.056074 -0.033580 -0.043749 -0.022031 0.143512 -0.067502 0.064482 -0.002104 -0.019541 -0.016157 -0.001181 0.107378 -0.183873 0.011471 -0.104235 -0.085710 0.107408 -0.038253 -0.044919 0.095696 -0.012005 -0.033854 0.103523 -0.008164 -0.004565 -0.062070 0.019409 0.098712 0.062067 0.046016 0.147598 0.102539 -0.181848 0.086895 0.120038 0.037475 0.169104 -0.201681 0.093858 0.021159 0.083305 -0.027740 -0.233891 -0.072729 0.040086 -0.090025 0.051766 0.009006 -0.140248 -0.131729 0.021136 -0.098956 0.005726 0.064799 -0.003476 -0.057066 -0.086274 0.023797 -0.061681 0.096509 0.007671 0.102524 -0.067116 0.169568 0.059929 0.036765 0.240848 0.044785 0.036990 0.189947 0.112753 0.027029 -0.009602 -0.202520 -0.006723 -0.063316 -0.024578 -0.053217 -0.047199 -0.013377 -0.148930 0.017740 0.074095
Lebih -0.040168 0.021035 0.029546 -0.056877 0.042615 -0.003811 0.043857 0.010905 -0.057671 0.032543 0.013080 -0.071212 0.002185 -0.052170 0.007789 -0.010513 -0.057571 -0.022112 -0.019765 -0.024580 -0.014358 0.067004 -0.025980 0.031644 0.000405 -0.011659 -0.003421 0.002753 0.051050 -0.086203 0.007565 -0.050553 -0.043190 0.046789 -0.020821 -0.022534 0.044417 -0.007564 -0.015856 0.052575 -0.005813 -0.005262 -0.031734 0.010626 0.039218 0.021087 0.020597 0.072286 0.046311 -0.085086 0.036188 0.050438 0.019610 0.082315 -0.089838 0.038767 0.007351 0.034183 -0.011036 -0.105202 -0.032201 0.023400 -0.045580 0.021632 0.003666 -0.064827 -0.062028 0.008997 -0.046590 0.001953 0.025127 0.001768 -0.028104 -0.035460 0.013995 -0.026366 0.040849 0.001360 0.051179 -0.035089 0.077907 0.026354 0.010087 0.110011 0.025171 0.013746 0.086360 0.046874 0.011368 0.002803 -0.088689 -0.000129 -0.024901 -0.012536 -0.021964 -0.019945 -0.000054 -0.063481 0.008515 0.032174
kerja -0.096861 0.035950 0.064298 -0.122553 0.095343 -0.018561 0.105257 0.025407 -0.145834 0.077956 0.032421 -0.151403 0.012240 -0.117523 0.015093 -0.025886 -0.120703 -0.063234 -0.038111 -0.051295 -0.031930 0.138768 -0.069468 0.067779 0.002551 -0.013150 -0.012300 -0.000622 0.112624 -0.183082 0.009287 -0.112268 -0.089564 0.108585 -0.043582 -0.045251 0.104660 -0.004631 -0.034601 0.112378 -0.001436 -0.003125 -0.066381 0.019978 0.097404 0.061499 0.037669 0.151595 0.104375 -0.184242 0.088421 0.124471 0.033319 0.175074 -0.209481 0.091561 0.029146 0.077884 -0.025320 -0.243072 -0.071221 0.040985 -0.097588 0.053674 0.006728 -0.145825 -0.137215 0.027845 -0.104764 0.009244 0.066660 0.000704 -0.063104 -0.092827 0.029967 -0.068628 0.106931 0.001676 0.105536 -0.071767 0.174863 0.061314 0.032687 0.252699 0.047273 0.038892 0.189469 0.111438 0.023026 -0.001164 -0.205579 -0.009731 -0.065776 -0.030691 -0.052052 -0.042158 -0.006192 -0.159165 0.016998 0.070263
langsung -0.116899 0.044243 0.068659 -0.143550 0.101874 -0.015961 0.125521 0.031191 -0.162021 0.089404 0.035706 -0.182348 0.005439 -0.132434 0.021018 -0.028153 -0.146015 -0.070490 -0.046483 -0.061847 -0.034006 0.166676 -0.078234 0.077091 0.005080 -0.013718 -0.016413 -0.000790 0.131747 -0.220762 0.012423 -0.123370 -0.098500 0.128566 -0.053451 -0.053282 0.116436 -0.011701 -0.034957 0.127693 -0.011197 -0.009970 -0.072989 0.022602 0.114295 0.067401 0.046423 0.182610 0.125816 -0.213557 0.110083 0.141039 0.036182 0.199689 -0.247055 0.111731 0.027935 0.095134 -0.027811 -0.281733 -0.087066 0.055765 -0.112451 0.059136 0.009411 -0.167313 -0.161689 0.026859 -0.125552 0.008916 0.074743 -0.002332 -0.066617 -0.106191 0.036000 -0.077102 0.119906 0.000840 0.120091 -0.081851 0.204717 0.067234 0.039591 0.292431 0.052900 0.043907 0.227076 0.132117 0.029421 -0.004917 -0.238332 -0.007424 -0.065712 -0.028180 -0.064723 -0.053142 -0.009658 -0.183230 0.023881 0.079717
pekerjaan -0.106600 0.041030 0.074246 -0.143214 0.105174 -0.022349 0.118823 0.024832 -0.156107 0.087805 0.038310 -0.177132 0.005728 -0.130383 0.021287 -0.033740 -0.134822 -0.064244 -0.043132 -0.056964 -0.033829 0.155492 -0.077583 0.067874 -0.000105 -0.021829 -0.017935 -0.008527 0.124768 -0.206629 0.006321 -0.124982 -0.101242 0.122124 -0.050600 -0.051219 0.114996 -0.005899 -0.037476 0.120947 -0.002008 -0.007714 -0.071683 0.028077 0.107841 0.071034 0.050798 0.168535 0.116784 -0.210760 0.104666 0.139797 0.043704 0.194613 -0.240413 0.101001 0.026597 0.086682 -0.025148 -0.266511 -0.083428 0.048675 -0.110478 0.063671 0.010789 -0.155740 -0.153618 0.027919 -0.121022 0.005486 0.068176 0.001402 -0.066390 -0.099004 0.025795 -0.072056 0.111349 0.008008 0.119647 -0.081496 0.198666 0.062258 0.032670 0.275756 0.055212 0.042788 0.213243 0.124193 0.030515 -0.006779 -0.227813 -0.006283 -0.067987 -0.027261 -0.065353 -0.055018 -0.006692 -0.177387 0.016326 0.080242
lulus -0.081181 0.040034 0.051172 -0.111095 0.077967 -0.016000 0.089572 0.015165 -0.123922 0.062901 0.025969 -0.134067 0.002509 -0.100625 0.014018 -0.019380 -0.099116 -0.050939 -0.026596 -0.043446 -0.018344 0.125952 -0.062185 0.052936 -0.001848 -0.010487 -0.011177 -0.000355 0.101694 -0.162797 0.001363 -0.090889 -0.077137 0.087811 -0.038291 -0.040008 0.086257 -0.011247 -0.032466 0.092439 -0.007517 -0.002636 -0.050679 0.017995 0.078970 0.051244 0.032879 0.127954 0.089565 -0.164440 0.076994 0.104992 0.033186 0.147495 -0.182787 0.084268 0.021552 0.068381 -0.021939 -0.207196 -0.065254 0.038597 -0.083104 0.045123 0.007660 -0.115970 -0.116933 0.023703 -0.094591 0.010075 0.057309 0.002676 -0.051065 -0.075395 0.026257 -0.056910 0.093456 0.004793 0.095097 -0.058067 0.146820 0.052949 0.030681 0.209828 0.038724 0.028424 0.163445 0.090629 0.018645 -0.004674 -0.171958 -0.006851 -0.049552 -0.025931 -0.043994 -0.042078 -0.006757 -0.136351 0.017619 0.065938
Semoga -0.068880 0.023184 0.045259 -0.088289 0.057168 -0.007512 0.078457 0.014032 -0.092193 0.051332 0.024711 -0.109596 0.002874 -0.073430 0.017195 -0.018332 -0.081529 -0.040635 -0.023623 -0.029315 -0.015749 0.095790 -0.047762 0.048535 -0.000483 -0.012839 -0.003899 -0.003369 0.077165 -0.130044 0.005664 -0.073694 -0.058345 0.069452 -0.025868 -0.033626 0.070811 -0.007234 -0.020173 0.075036 -0.003778 -0.006165 -0.039544 0.018259 0.063177 0.044739 0.024778 0.100149 0.066853 -0.130592 0.063563 0.084228 0.022897 0.123293 -0.142758 0.060379 0.013611 0.055911 -0.018879 -0.159541 -0.050716 0.035964 -0.063563 0.034943 0.003469 -0.096105 -0.094324 0.015223 -0.073847 0.000687 0.043522 -0.003738 -0.043675 -0.056143 0.019950 -0.046216 0.070033 -0.000000 0.070955 -0.045397 0.120115 0.037767 0.027331 0.162936 0.029688 0.026910 0.131698 0.074382 0.021272 -0.001837 -0.140517 -0.004694 -0.042561 -0.021456 -0.033299 -0.029671 -0.004975 -0.100292 0.012344 0.053294
industri -0.103607 0.038239 0.059283 -0.128692 0.096155 -0.013727 0.110563 0.018270 -0.145619 0.075885 0.030304 -0.162959 0.012680 -0.117676 0.014507 -0.031412 -0.125939 -0.063400 -0.035496 -0.053174 -0.025231 0.152338 -0.069070 0.061393 0.003927 -0.016446 -0.010846 -0.008511 0.113301 -0.188060 0.011140 -0.115658 -0.088870 0.113821 -0.047304 -0.051502 0.100167 -0.008754 -0.038761 0.112107 -0.008778 -0.012850 -0.058861 0.025378 0.101020 0.065423 0.048055 0.153048 0.108985 -0.195564 0.091330 0.127934 0.039367 0.180201 -0.214596 0.099945 0.030126 0.086386 -0.028130 -0.246317 -0.076318 0.046201 -0.099744 0.056894 0.013184 -0.143099 -0.141956 0.030336 -0.108620 0.005145 0.065184 -0.003427 -0.060933 -0.091483 0.032464 -0.062429 0.108180 0.002458 0.114184 -0.072058 0.182649 0.057210 0.030573 0.259619 0.044331 0.043941 0.199563 0.114253 0.027377 -0.003706 -0.211138 -0.006239 -0.057325 -0.029988 -0.060727 -0.046131 -0.012701 -0.161422 0.015796 0.077101
perusahaan -0.106208 0.040922 0.071033 -0.141829 0.103228 -0.018867 0.117899 0.029901 -0.157197 0.086217 0.039226 -0.176994 0.009034 -0.131514 0.021774 -0.026823 -0.134636 -0.068188 -0.038435 -0.053153 -0.033052 0.155912 -0.074222 0.075501 0.000485 -0.017368 -0.011317 -0.002973 0.124276 -0.206807 0.003710 -0.117065 -0.097049 0.123548 -0.053732 -0.049448 0.116099 -0.004586 -0.039183 0.120469 -0.005188 -0.014149 -0.065973 0.028988 0.102853 0.069234 0.050087 0.171882 0.112581 -0.205695 0.099594 0.137225 0.039672 0.197873 -0.233610 0.109524 0.027121 0.090650 -0.022499 -0.261998 -0.077774 0.046571 -0.104152 0.060195 0.011548 -0.153950 -0.148136 0.027688 -0.117217 0.013146 0.073421 -0.002157 -0.068470 -0.094176 0.031008 -0.072498 0.120595 0.005545 0.115239 -0.082110 0.194079 0.067696 0.039507 0.279532 0.049102 0.047399 0.211865 0.129697 0.023206 -0.006563 -0.225327 -0.006003 -0.070568 -0.025931 -0.060479 -0.046312 -0.007512 -0.170291 0.021349 0.079273
semoga -0.112074 0.053123 0.079997 -0.153973 0.115054 -0.015356 0.133499 0.025828 -0.171243 0.089742 0.044060 -0.184692 0.004332 -0.142143 0.026345 -0.032108 -0.149569 -0.069705 -0.039173 -0.056598 -0.028262 0.173344 -0.087462 0.077866 0.001882 -0.023016 -0.014302 -0.002919 0.137666 -0.228473 0.009471 -0.126158 -0.103626 0.129253 -0.049445 -0.053409 0.119256 -0.004932 -0.035909 0.128367 -0.009008 -0.009420 -0.072687 0.024292 0.116507 0.074082 0.048754 0.184308 0.121161 -0.230732 0.109642 0.146634 0.045444 0.208835 -0.252438 0.115103 0.029208 0.100627 -0.032754 -0.292936 -0.080935 0.058391 -0.112516 0.059192 0.010660 -0.173361 -0.161176 0.027692 -0.131199 0.006941 0.082833 -0.000627 -0.072077 -0.104242 0.029752 -0.083448 0.128086 0.001538 0.130142 -0.083552 0.209378 0.065941 0.044910 0.295775 0.057926 0.051008 0.238219 0.135863 0.027382 -0.008829 -0.250706 -0.004349 -0.072915 -0.035019 -0.065882 -0.052427 -0.013595 -0.191879 0.021940 0.087643
belajar -0.131397 0.059414 0.087635 -0.161941 0.127539 -0.017956 0.148645 0.034028 -0.191838 0.103966 0.046286 -0.205140 0.011275 -0.151750 0.028472 -0.031654 -0.159695 -0.075149 -0.049140 -0.071417 -0.034707 0.187457 -0.092509 0.083120 -0.001535 -0.016004 -0.016179 -0.002737 0.155119 -0.247832 0.006667 -0.151967 -0.121097 0.143706 -0.054376 -0.064673 0.141371 -0.010200 -0.047598 0.144456 -0.004733 -0.013457 -0.079092 0.033280 0.130270 0.080675 0.054298 0.206167 0.136852 -0.249167 0.122036 0.156889 0.045220 0.235638 -0.282054 0.125306 0.038260 0.107987 -0.028368 -0.322622 -0.096072 0.058577 -0.126779 0.069326 0.014469 -0.187028 -0.179542 0.037492 -0.142950 0.011270 0.085447 0.002837 -0.080099 -0.123871 0.035746 -0.090218 0.134918 0.003298 0.140600 -0.092187 0.231372 0.075930 0.042351 0.335185 0.064486 0.052571 0.258636 0.149738 0.032351 -0.013054 -0.266888 -0.004296 -0.083978 -0.033532 -0.070817 -0.057116 -0.018894 -0.207668 0.020541 0.091796
mengadakan -0.114276 0.042981 0.069622 -0.146762 0.102590 -0.021677 0.126001 0.028006 -0.165630 0.084126 0.035773 -0.175718 0.013309 -0.134620 0.018753 -0.032650 -0.143005 -0.070003 -0.045247 -0.058055 -0.025831 0.162122 -0.079463 0.077328 0.001238 -0.017054 -0.014181 -0.008132 0.132468 -0.218484 0.002857 -0.126465 -0.097189 0.120580 -0.047499 -0.052238 0.118192 -0.006190 -0.040059 0.124080 -0.001772 -0.009376 -0.072500 0.029267 0.107033 0.062565 0.053788 0.170683 0.117473 -0.213576 0.104072 0.137188 0.043151 0.202010 -0.243371 0.110170 0.026585 0.093976 -0.028681 -0.277604 -0.083961 0.054263 -0.106921 0.056250 0.004052 -0.157488 -0.157077 0.031344 -0.122960 0.006354 0.074877 -0.000500 -0.072476 -0.100920 0.027766 -0.068947 0.117967 0.001790 0.124527 -0.082183 0.196356 0.065185 0.033232 0.282053 0.047678 0.044290 0.220988 0.126654 0.030850 -0.002946 -0.235952 -0.011837 -0.074131 -0.035290 -0.059952 -0.048902 -0.006961 -0.179106 0.025898 0.087856
Untuk -0.072247 0.027619 0.045996 -0.092386 0.066694 -0.015392 0.081774 0.016507 -0.105808 0.062601 0.021226 -0.124081 0.004392 -0.085176 0.015878 -0.020967 -0.090542 -0.049953 -0.028454 -0.034162 -0.019433 0.111146 -0.051147 0.049495 -0.000337 -0.017172 -0.013532 -0.006135 0.084610 -0.139649 0.008723 -0.089759 -0.067277 0.081399 -0.037852 -0.038654 0.083609 -0.006615 -0.024123 0.085587 -0.008262 -0.006801 -0.049876 0.017441 0.069754 0.048829 0.028946 0.118700 0.078859 -0.149951 0.065437 0.089577 0.026918 0.138873 -0.162779 0.075174 0.019356 0.067040 -0.019098 -0.183274 -0.055066 0.031477 -0.072772 0.035952 0.002250 -0.108257 -0.110049 0.024441 -0.083949 0.010235 0.050533 -0.001326 -0.050335 -0.069931 0.018052 -0.052814 0.083009 0.003714 0.086357 -0.059261 0.136586 0.042942 0.025317 0.192602 0.038568 0.030749 0.148429 0.086813 0.014716 -0.007665 -0.158990 -0.003254 -0.046592 -0.023433 -0.041374 -0.038344 -0.004165 -0.122640 0.018055 0.057329
matkul -0.108219 0.040995 0.071330 -0.137962 0.093587 -0.023750 0.115690 0.027742 -0.156155 0.087881 0.035957 -0.162953 0.004579 -0.124229 0.015673 -0.025142 -0.125579 -0.061183 -0.038270 -0.055635 -0.027181 0.151756 -0.072352 0.072716 -0.001850 -0.021804 -0.011225 -0.002260 0.122142 -0.200767 0.008479 -0.114462 -0.098043 0.120971 -0.048130 -0.048441 0.113429 -0.003593 -0.032297 0.115753 -0.009696 -0.008662 -0.069786 0.027601 0.102143 0.063674 0.042242 0.159887 0.116053 -0.206786 0.096606 0.132497 0.041802 0.191514 -0.232894 0.104262 0.033032 0.084300 -0.030681 -0.260480 -0.080321 0.046582 -0.100428 0.054400 0.007718 -0.152494 -0.149881 0.027060 -0.116593 0.011485 0.064600 -0.005344 -0.068878 -0.098392 0.031451 -0.073562 0.115220 0.000632 0.114849 -0.072163 0.191309 0.061960 0.041126 0.270185 0.053753 0.038850 0.211976 0.121709 0.026789 -0.008532 -0.219860 -0.006669 -0.069182 -0.028754 -0.061788 -0.046174 -0.015832 -0.168011 0.022088 0.077700
seminar -0.087248 0.036456 0.061076 -0.117972 0.086587 -0.017738 0.105328 0.025643 -0.128944 0.069703 0.035291 -0.146939 0.009666 -0.103125 0.013327 -0.028639 -0.111437 -0.050338 -0.036146 -0.043439 -0.022465 0.132842 -0.068239 0.065104 0.001729 -0.011490 -0.009990 -0.006540 0.105618 -0.180305 0.002655 -0.098954 -0.086596 0.105690 -0.035994 -0.041185 0.091170 -0.007693 -0.033986 0.107301 -0.003008 -0.010408 -0.056124 0.023264 0.085306 0.055110 0.042077 0.147439 0.095823 -0.180310 0.084412 0.113988 0.030662 0.163310 -0.196223 0.083915 0.019813 0.081124 -0.021502 -0.226160 -0.062083 0.042869 -0.088280 0.047093 0.005203 -0.134454 -0.126823 0.026209 -0.096615 0.003194 0.058181 -0.006028 -0.050988 -0.079769 0.025949 -0.057633 0.095547 0.004644 0.099627 -0.069720 0.158691 0.055702 0.030491 0.227947 0.039695 0.035015 0.185469 0.108122 0.021768 -0.000253 -0.192324 -0.001159 -0.056789 -0.024418 -0.051895 -0.039837 -0.009202 -0.144209 0.021382 0.070832
profesi -0.072840 0.031466 0.045093 -0.093274 0.069937 -0.015346 0.084533 0.021985 -0.105329 0.059507 0.020915 -0.119905 0.007655 -0.081973 0.018456 -0.022740 -0.086130 -0.042545 -0.025025 -0.040932 -0.022880 0.103582 -0.052496 0.051311 0.001762 -0.007199 -0.006394 -0.005113 0.084123 -0.141476 0.009217 -0.081877 -0.065737 0.083475 -0.028975 -0.036408 0.073246 -0.008474 -0.027328 0.082489 -0.004594 -0.002246 -0.048312 0.020503 0.072408 0.045300 0.032561 0.110718 0.074759 -0.140368 0.069847 0.086447 0.026112 0.136930 -0.156064 0.072769 0.019191 0.064986 -0.013805 -0.176438 -0.054331 0.034808 -0.075240 0.042319 0.010933 -0.104598 -0.104767 0.017730 -0.079215 0.009580 0.052620 0.000126 -0.048978 -0.067233 0.016145 -0.052252 0.080125 0.001153 0.075064 -0.052456 0.134621 0.037825 0.026949 0.189720 0.029864 0.028411 0.142592 0.083940 0.016699 0.000354 -0.154028 -0.003974 -0.043948 -0.015904 -0.044769 -0.033854 -0.005855 -0.120762 0.010576 0.051843
mencari -0.104134 0.045702 0.065511 -0.133787 0.094421 -0.013371 0.113364 0.023843 -0.148642 0.078159 0.032976 -0.159491 0.007225 -0.117949 0.022545 -0.031818 -0.124311 -0.059821 -0.034498 -0.047063 -0.030193 0.146621 -0.066624 0.069513 -0.000302 -0.016045 -0.009461 -0.002969 0.115689 -0.194806 0.009217 -0.116491 -0.093288 0.112646 -0.044859 -0.048461 0.110187 -0.007133 -0.032494 0.111722 -0.011023 -0.005325 -0.063990 0.019630 0.095395 0.064163 0.046572 0.162052 0.107921 -0.197471 0.097685 0.127326 0.036426 0.180730 -0.223269 0.101027 0.030467 0.087770 -0.027867 -0.251635 -0.070031 0.051942 -0.096109 0.055801 0.007476 -0.141073 -0.137884 0.022415 -0.102889 0.008704 0.063394 0.000442 -0.057081 -0.088858 0.032451 -0.066656 0.104735 0.003756 0.113004 -0.076435 0.183074 0.060890 0.034785 0.255611 0.048420 0.043348 0.197908 0.112352 0.029504 -0.007116 -0.211940 -0.005577 -0.064522 -0.030187 -0.058985 -0.051072 -0.013404 -0.160412 0.017886 0.079392
kampus -0.079962 0.036855 0.053667 -0.106980 0.080129 -0.015443 0.093663 0.015630 -0.123809 0.068095 0.026922 -0.131689 0.008936 -0.092648 0.019521 -0.018034 -0.101899 -0.048210 -0.036257 -0.046023 -0.018563 0.120431 -0.061320 0.050543 -0.001303 -0.013472 -0.009847 0.000120 0.091896 -0.162641 0.002694 -0.093978 -0.070560 0.086586 -0.040532 -0.034991 0.087056 -0.006960 -0.033056 0.089212 -0.006246 -0.005453 -0.051608 0.018840 0.080087 0.051132 0.035863 0.130499 0.092533 -0.161807 0.072944 0.101562 0.027982 0.150187 -0.183212 0.080918 0.017626 0.068624 -0.025250 -0.206767 -0.059274 0.036376 -0.077841 0.044154 0.007847 -0.121664 -0.113364 0.016821 -0.087906 0.009860 0.055385 0.002277 -0.050940 -0.078183 0.027413 -0.054896 0.087366 0.001297 0.093716 -0.065454 0.145644 0.052953 0.024459 0.211641 0.041077 0.034261 0.165450 0.094459 0.024905 -0.001566 -0.175543 -0.003105 -0.056087 -0.022990 -0.047336 -0.038305 -0.006729 -0.133493 0.013105 0.064493
ditingkatkan -0.072739 0.028700 0.049057 -0.095206 0.067405 -0.013379 0.087510 0.016544 -0.112961 0.057444 0.023198 -0.122637 0.006598 -0.091335 0.013195 -0.021539 -0.095312 -0.042640 -0.029249 -0.039241 -0.020810 0.114983 -0.054994 0.053873 -0.002308 -0.012940 -0.006746 -0.000153 0.088454 -0.147540 0.000878 -0.085045 -0.069700 0.084445 -0.035766 -0.040110 0.079699 -0.007581 -0.022617 0.082393 -0.001505 -0.003580 -0.047436 0.016836 0.069532 0.045213 0.030749 0.115882 0.083830 -0.143095 0.071141 0.096709 0.024127 0.130904 -0.162974 0.077168 0.025486 0.062139 -0.018625 -0.184698 -0.054974 0.035378 -0.069252 0.037787 0.006470 -0.111744 -0.108172 0.024088 -0.084375 0.005625 0.049345 -0.005494 -0.047251 -0.070117 0.018097 -0.049070 0.079841 0.007516 0.081003 -0.052148 0.131895 0.047561 0.029745 0.189143 0.030768 0.032950 0.149642 0.090554 0.020707 -0.001917 -0.156461 -0.002213 -0.042153 -0.023930 -0.043984 -0.036236 -0.007406 -0.114553 0.011030 0.054430
masuk -0.101275 0.045020 0.067570 -0.128018 0.095466 -0.022546 0.116599 0.023130 -0.148547 0.076402 0.038962 -0.159957 0.011408 -0.123394 0.015479 -0.024247 -0.130012 -0.062751 -0.038617 -0.051048 -0.031897 0.153219 -0.070764 0.072476 -0.002625 -0.016602 -0.012869 -0.001923 0.112737 -0.200295 0.004601 -0.117131 -0.089951 0.110080 -0.047176 -0.044909 0.108740 -0.003690 -0.031566 0.118466 -0.001438 -0.003846 -0.060777 0.026072 0.103603 0.058232 0.047148 0.162035 0.111224 -0.200028 0.092234 0.123761 0.033137 0.186158 -0.216373 0.095915 0.031672 0.089563 -0.026570 -0.247004 -0.074403 0.051536 -0.099263 0.051306 0.006910 -0.146141 -0.138523 0.022156 -0.106965 0.005304 0.066689 0.002663 -0.066505 -0.095369 0.026240 -0.067885 0.108842 0.001864 0.114918 -0.071298 0.187033 0.057059 0.039546 0.255675 0.047249 0.043738 0.199787 0.117776 0.023932 -0.005570 -0.214656 -0.010376 -0.061287 -0.028089 -0.058799 -0.044079 -0.012291 -0.164613 0.013860 0.073125
mata -0.081417 0.030867 0.051827 -0.103899 0.076650 -0.008824 0.091716 0.022797 -0.108989 0.059438 0.028640 -0.120018 0.001390 -0.091292 0.012887 -0.025245 -0.092250 -0.046433 -0.026405 -0.042308 -0.025586 0.119643 -0.055063 0.052588 -0.004923 -0.009965 -0.007346 -0.005748 0.095754 -0.153333 0.009192 -0.088586 -0.071717 0.085640 -0.033228 -0.042191 0.077172 -0.002184 -0.023262 0.085677 -0.005573 -0.007423 -0.051289 0.021419 0.080754 0.047565 0.031962 0.117629 0.084740 -0.153359 0.068049 0.096930 0.024270 0.142260 -0.164456 0.073983 0.021796 0.060913 -0.021301 -0.186406 -0.059679 0.040067 -0.079064 0.041113 0.006486 -0.117034 -0.104312 0.025447 -0.085002 0.005144 0.046027 0.001086 -0.050747 -0.068212 0.023317 -0.053173 0.079059 0.006254 0.080509 -0.053966 0.137856 0.047336 0.030347 0.200122 0.040107 0.034600 0.155378 0.093090 0.016886 -0.006343 -0.161906 -0.004656 -0.044468 -0.021280 -0.042289 -0.039757 -0.006130 -0.127414 0.017991 0.059201
memiliki -0.111460 0.043905 0.072948 -0.143958 0.099991 -0.014127 0.126012 0.025860 -0.163255 0.083835 0.038868 -0.174894 0.003323 -0.126432 0.026108 -0.032391 -0.141223 -0.069096 -0.035892 -0.060822 -0.032563 0.165252 -0.074483 0.075827 0.001702 -0.019515 -0.015353 -0.007129 0.126992 -0.210709 0.009544 -0.122899 -0.095462 0.125818 -0.046075 -0.055374 0.114377 -0.004196 -0.034172 0.118203 -0.006466 -0.011364 -0.069577 0.031109 0.107715 0.069154 0.043901 0.169676 0.121590 -0.205781 0.102226 0.135678 0.041584 0.196813 -0.233552 0.100883 0.027881 0.086938 -0.028817 -0.266193 -0.086145 0.050882 -0.110666 0.056291 0.010574 -0.161787 -0.149678 0.030712 -0.116633 0.006504 0.072903 0.003814 -0.063436 -0.099365 0.027476 -0.073344 0.113966 0.005222 0.116451 -0.074354 0.199978 0.069243 0.041614 0.282668 0.055090 0.041978 0.214583 0.126965 0.026040 -0.003417 -0.232867 -0.009692 -0.063829 -0.032674 -0.064078 -0.050738 -0.012159 -0.170194 0.017706 0.085164
relevan -0.100404 0.036720 0.061593 -0.125022 0.089897 -0.020770 0.110993 0.026231 -0.142675 0.073774 0.033973 -0.157173 0.005179 -0.108215 0.016940 -0.028718 -0.114499 -0.059771 -0.039410 -0.051135 -0.027684 0.139269 -0.066195 0.061220 -0.003714 -0.015616 -0.009896 -0.002193 0.113656 -0.179156 0.006567 -0.107024 -0.091694 0.107096 -0.047299 -0.050742 0.102755 -0.011028 -0.037254 0.104411 -0.007872 -0.005559 -0.057769 0.020528 0.096163 0.056272 0.043588 0.147233 0.105730 -0.184099 0.093828 0.114627 0.032903 0.177593 -0.212632 0.087986 0.027100 0.082675 -0.025929 -0.230693 -0.068536 0.040890 -0.094274 0.051080 0.005445 -0.141416 -0.132593 0.026228 -0.098186 0.004869 0.059758 -0.006384 -0.060549 -0.089104 0.028927 -0.064069 0.099249 0.002569 0.108172 -0.068523 0.171056 0.054245 0.030725 0.245491 0.049215 0.041717 0.192999 0.114574 0.029253 -0.001402 -0.198079 -0.005966 -0.062500 -0.023179 -0.052796 -0.043946 -0.011681 -0.155745 0.015159 0.068118
fasilitas -0.085146 0.037652 0.056033 -0.114551 0.075509 -0.017963 0.090552 0.021753 -0.124817 0.069850 0.027683 -0.133070 0.008158 -0.103941 0.016804 -0.028117 -0.101477 -0.048923 -0.029410 -0.040186 -0.027936 0.121603 -0.060930 0.059929 -0.002393 -0.011781 -0.006964 -0.003054 0.097662 -0.160360 0.005843 -0.099139 -0.072329 0.093857 -0.035651 -0.041590 0.089809 -0.005566 -0.031689 0.096246 -0.007027 -0.005377 -0.050123 0.025578 0.084830 0.047476 0.035249 0.129358 0.087360 -0.163466 0.079010 0.102320 0.036122 0.155532 -0.184905 0.082910 0.026897 0.070246 -0.017961 -0.205007 -0.065449 0.043490 -0.078528 0.049566 0.003577 -0.127768 -0.122705 0.024987 -0.092424 0.008074 0.057356 0.004505 -0.049523 -0.080426 0.027452 -0.052365 0.088674 0.003808 0.093720 -0.066496 0.154658 0.045831 0.029569 0.218678 0.037348 0.030435 0.172076 0.098198 0.025712 -0.006436 -0.174141 -0.007833 -0.050324 -0.020371 -0.049701 -0.041861 -0.010701 -0.134119 0.010936 0.061103
info -0.089373 0.038944 0.051586 -0.114664 0.079855 -0.015455 0.102400 0.017515 -0.128591 0.073380 0.025009 -0.140140 0.011378 -0.104781 0.013240 -0.022163 -0.105183 -0.049536 -0.033493 -0.045148 -0.026103 0.129836 -0.059092 0.062301 0.001423 -0.010087 -0.014400 -0.000473 0.103114 -0.169310 0.002514 -0.099036 -0.075067 0.098375 -0.036291 -0.038180 0.085905 -0.006906 -0.027926 0.095423 -0.007861 -0.004118 -0.050283 0.023340 0.087751 0.057408 0.042664 0.140292 0.096050 -0.164097 0.082640 0.106928 0.033193 0.156888 -0.188520 0.079920 0.024193 0.076701 -0.023061 -0.211371 -0.065820 0.046086 -0.088633 0.043379 0.003539 -0.127717 -0.116309 0.019699 -0.090738 0.010214 0.061145 -0.000828 -0.054345 -0.078241 0.023263 -0.060033 0.095677 -0.000482 0.093637 -0.061310 0.157512 0.050748 0.032508 0.219437 0.039267 0.036609 0.172172 0.094979 0.025924 -0.005197 -0.184339 -0.002012 -0.058189 -0.026243 -0.048106 -0.044940 -0.008524 -0.136249 0.021176 0.063816
tolong -0.111195 0.046376 0.070551 -0.143618 0.099726 -0.021723 0.126628 0.022377 -0.153484 0.083614 0.036284 -0.174908 0.012862 -0.127676 0.016601 -0.033395 -0.133356 -0.069352 -0.036433 -0.051083 -0.030087 0.155497 -0.073539 0.068046 -0.001058 -0.014976 -0.010273 -0.006030 0.129793 -0.207642 0.011601 -0.122561 -0.102313 0.124130 -0.044940 -0.054084 0.116863 -0.011018 -0.033404 0.124056 -0.002752 -0.013255 -0.068596 0.028848 0.112705 0.070021 0.047061 0.173944 0.119775 -0.213574 0.103166 0.129343 0.036179 0.201048 -0.232684 0.106195 0.034579 0.088432 -0.029779 -0.262867 -0.077366 0.048838 -0.100734 0.054137 0.010481 -0.153326 -0.154645 0.030319 -0.114754 0.010520 0.066183 -0.002135 -0.068571 -0.100133 0.030765 -0.075283 0.116299 0.007979 0.121453 -0.080249 0.188609 0.067316 0.041689 0.276536 0.047840 0.038882 0.211702 0.120540 0.027861 -0.004342 -0.231869 -0.009314 -0.065504 -0.029077 -0.067310 -0.050647 -0.006779 -0.168350 0.017795 0.079665
lowongan -0.074382 0.032253 0.046935 -0.087589 0.067446 -0.007912 0.082983 0.016153 -0.106975 0.060798 0.019155 -0.106919 0.005323 -0.078166 0.015584 -0.023749 -0.091488 -0.042809 -0.028700 -0.032955 -0.024202 0.105206 -0.047922 0.046537 0.003807 -0.009802 -0.012742 -0.000281 0.081211 -0.139772 0.006905 -0.080911 -0.065737 0.073943 -0.031513 -0.032254 0.075483 -0.005064 -0.029188 0.083008 -0.007351 -0.007165 -0.046375 0.014753 0.069087 0.044689 0.032327 0.111045 0.079486 -0.131505 0.062274 0.087099 0.030142 0.129680 -0.151735 0.067239 0.014326 0.063027 -0.022049 -0.171886 -0.052912 0.029144 -0.071995 0.042829 0.009157 -0.105883 -0.099733 0.022451 -0.070574 0.006997 0.050877 0.002363 -0.041596 -0.067791 0.015168 -0.051250 0.079127 -0.002558 0.076929 -0.055257 0.128163 0.041802 0.022307 0.183219 0.035403 0.031151 0.143000 0.078566 0.022223 -0.007397 -0.146056 -0.002355 -0.038453 -0.015593 -0.039579 -0.033126 -0.009337 -0.107120 0.017461 0.050828
tugas -0.076143 0.029415 0.047407 -0.092235 0.068746 -0.011235 0.079882 0.020629 -0.109580 0.054948 0.022105 -0.123434 0.000292 -0.088413 0.009893 -0.016649 -0.097902 -0.041468 -0.029968 -0.038939 -0.019957 0.107389 -0.056199 0.047534 -0.001759 -0.008209 -0.010893 -0.003046 0.087525 -0.137788 0.008216 -0.082772 -0.071831 0.081650 -0.034178 -0.035788 0.083095 -0.006536 -0.025661 0.085971 -0.004113 -0.009692 -0.049042 0.013023 0.074329 0.047089 0.036246 0.114439 0.080078 -0.145191 0.064350 0.091420 0.029700 0.139906 -0.165525 0.075917 0.020257 0.060419 -0.015633 -0.182847 -0.052842 0.037251 -0.076946 0.040268 0.011451 -0.108992 -0.106603 0.016928 -0.079175 0.008576 0.045792 0.000012 -0.040722 -0.073060 0.022760 -0.047929 0.074519 0.000010 0.076085 -0.051566 0.129590 0.046636 0.027664 0.193614 0.036096 0.033705 0.153880 0.080905 0.018704 -0.004532 -0.161246 -0.000385 -0.042771 -0.018487 -0.043683 -0.036706 -0.012304 -0.123523 0.018291 0.057696
keahlian -0.091673 0.042663 0.056876 -0.122102 0.085304 -0.012158 0.111817 0.019800 -0.141676 0.072315 0.030185 -0.154590 0.007131 -0.113571 0.019628 -0.028746 -0.117818 -0.053403 -0.040949 -0.047103 -0.023135 0.141879 -0.069875 0.061549 0.001151 -0.012386 -0.010470 -0.008215 0.111963 -0.183297 0.003196 -0.109768 -0.091689 0.107716 -0.045161 -0.046716 0.100943 -0.005669 -0.037889 0.113902 -0.005517 -0.012768 -0.066140 0.027339 0.095126 0.057190 0.047231 0.150280 0.102476 -0.187928 0.093596 0.122610 0.034325 0.179698 -0.209278 0.096037 0.025032 0.076182 -0.026105 -0.236747 -0.073931 0.050802 -0.091183 0.052412 0.009844 -0.141187 -0.135214 0.022322 -0.106201 0.004441 0.058798 -0.004304 -0.057952 -0.085216 0.027591 -0.064197 0.099408 0.002341 0.105796 -0.067139 0.174713 0.053239 0.035918 0.249433 0.040883 0.037814 0.191319 0.114586 0.028683 -0.004960 -0.198469 -0.002827 -0.061318 -0.021972 -0.058829 -0.040836 -0.006032 -0.155358 0.014105 0.076356
persiapan -0.091726 0.035212 0.053325 -0.118165 0.083505 -0.020944 0.103774 0.025661 -0.132628 0.074979 0.032785 -0.142142 0.009352 -0.106795 0.017663 -0.027461 -0.108150 -0.057185 -0.031328 -0.040693 -0.021959 0.130230 -0.067882 0.061033 0.000235 -0.012557 -0.012082 -0.005563 0.106246 -0.169846 0.003463 -0.103489 -0.085714 0.101329 -0.038363 -0.042337 0.090246 -0.010597 -0.035058 0.104599 -0.008017 -0.002994 -0.054114 0.018355 0.092672 0.054016 0.044055 0.137305 0.098616 -0.174508 0.081043 0.113250 0.036041 0.163827 -0.195609 0.089519 0.021352 0.075526 -0.025098 -0.218308 -0.061164 0.048241 -0.088888 0.050723 0.004037 -0.133961 -0.122232 0.022020 -0.098231 0.006869 0.055616 -0.001980 -0.054607 -0.083245 0.027556 -0.055130 0.091156 0.004472 0.097750 -0.065687 0.163364 0.050356 0.028738 0.229703 0.038859 0.040354 0.182423 0.107594 0.022528 -0.007455 -0.182993 -0.001275 -0.060618 -0.020372 -0.048579 -0.041305 -0.008154 -0.140817 0.012198 0.066542
meningkatkan -0.078654 0.033351 0.050329 -0.106180 0.074284 -0.014305 0.087288 0.014150 -0.113519 0.063482 0.021281 -0.131948 0.006193 -0.091462 0.019458 -0.018027 -0.096309 -0.049568 -0.033979 -0.036936 -0.025111 0.117382 -0.057413 0.056317 0.001460 -0.012684 -0.006714 -0.001531 0.091824 -0.155591 0.000754 -0.092621 -0.066627 0.084714 -0.037809 -0.034934 0.084192 -0.001862 -0.024447 0.084402 -0.000117 -0.011949 -0.049517 0.016453 0.078740 0.048324 0.036253 0.121049 0.090553 -0.157364 0.071716 0.097244 0.032815 0.146039 -0.172225 0.077415 0.026867 0.061742 -0.018347 -0.196435 -0.057597 0.039441 -0.079254 0.047795 0.004683 -0.111000 -0.113983 0.023254 -0.080728 0.001975 0.054524 -0.002487 -0.048654 -0.072984 0.017681 -0.053395 0.084198 0.001678 0.087615 -0.058467 0.142186 0.046815 0.026072 0.205843 0.037051 0.036352 0.159654 0.088002 0.021625 -0.001636 -0.163845 -0.008204 -0.052815 -0.023265 -0.042034 -0.036626 -0.008038 -0.121868 0.017297 0.063446
tahfidz -0.059152 0.019489 0.038420 -0.076558 0.058098 -0.006638 0.067863 0.015148 -0.083814 0.042804 0.021208 -0.093366 0.006851 -0.070746 0.013522 -0.010638 -0.070804 -0.035368 -0.020069 -0.029024 -0.020325 0.087984 -0.039196 0.042147 0.001493 -0.009769 -0.002131 -0.002214 0.064616 -0.106355 0.002149 -0.066735 -0.048218 0.061250 -0.024122 -0.023163 0.055937 -0.000192 -0.018321 0.061127 -0.003405 -0.002231 -0.039794 0.014729 0.054553 0.039770 0.028317 0.087349 0.066160 -0.115910 0.050722 0.073895 0.024771 0.102772 -0.122131 0.056315 0.016347 0.049795 -0.009810 -0.144559 -0.041941 0.023816 -0.061062 0.035814 0.004499 -0.084876 -0.078225 0.010498 -0.058771 0.000851 0.039895 -0.004091 -0.039690 -0.049311 0.018262 -0.035210 0.065443 -0.001592 0.067813 -0.038661 0.102007 0.030762 0.017252 0.149423 0.026296 0.020813 0.116101 0.062534 0.014900 -0.007525 -0.122432 -0.003339 -0.034613 -0.020086 -0.033906 -0.028552 -0.006723 -0.097166 0.015578 0.043200
kebingungan -0.093843 0.042996 0.056856 -0.115721 0.086265 -0.013422 0.102333 0.018249 -0.135751 0.078337 0.030405 -0.154124 0.005225 -0.115050 0.016597 -0.024742 -0.119970 -0.058987 -0.039737 -0.050488 -0.030822 0.138367 -0.070920 0.058657 -0.001054 -0.014245 -0.014323 -0.005118 0.109960 -0.178134 0.005999 -0.108703 -0.085602 0.100391 -0.037143 -0.045766 0.096817 -0.011759 -0.030548 0.107191 -0.005570 -0.005717 -0.055463 0.027511 0.095424 0.055301 0.041424 0.148194 0.100205 -0.181575 0.083818 0.119604 0.030655 0.174112 -0.207205 0.094895 0.026377 0.076648 -0.022849 -0.234230 -0.063871 0.043782 -0.092718 0.048063 0.012909 -0.133508 -0.129407 0.023498 -0.096708 0.004972 0.063397 0.002771 -0.058057 -0.085608 0.027022 -0.064352 0.095248 0.003394 0.102682 -0.065312 0.172001 0.049934 0.032421 0.240442 0.047196 0.040788 0.182742 0.105778 0.019225 -0.003672 -0.193480 -0.002098 -0.059621 -0.026789 -0.050482 -0.045866 -0.013961 -0.152945 0.021384 0.065619
cepat -0.080313 0.030805 0.057660 -0.108938 0.080501 -0.011522 0.097046 0.019970 -0.124781 0.066310 0.026136 -0.139699 0.008511 -0.095620 0.017976 -0.023944 -0.101614 -0.047951 -0.028876 -0.048119 -0.027567 0.130527 -0.065549 0.054302 -0.001446 -0.017651 -0.010203 -0.001504 0.100034 -0.161556 0.009347 -0.094602 -0.077825 0.096647 -0.036169 -0.037552 0.086168 -0.010074 -0.032678 0.094210 -0.007051 -0.008290 -0.055649 0.020569 0.086123 0.054705 0.034624 0.138599 0.092640 -0.167695 0.077873 0.106388 0.029660 0.159427 -0.186427 0.084919 0.026002 0.073848 -0.020062 -0.207449 -0.064418 0.041956 -0.078422 0.041763 0.012075 -0.129156 -0.120086 0.027276 -0.095759 0.002694 0.052617 -0.003292 -0.051731 -0.075153 0.022509 -0.057626 0.088513 0.006643 0.095158 -0.067004 0.157183 0.048951 0.033072 0.220189 0.041065 0.029697 0.169475 0.097434 0.021431 -0.003300 -0.184044 -0.005288 -0.054521 -0.018265 -0.053898 -0.038775 -0.004134 -0.138106 0.015482 0.062013
informatika -0.091998 0.033757 0.056123 -0.122041 0.089593 -0.020790 0.103817 0.020763 -0.130381 0.078162 0.030782 -0.148552 0.005375 -0.103788 0.022379 -0.023632 -0.114757 -0.059230 -0.031849 -0.042673 -0.026092 0.139077 -0.066243 0.062390 0.005214 -0.019335 -0.008736 -0.001096 0.103404 -0.182580 0.004967 -0.103561 -0.088925 0.106396 -0.039650 -0.046615 0.097237 -0.006507 -0.029989 0.108963 -0.007606 -0.003154 -0.061004 0.018803 0.089423 0.060007 0.043041 0.148901 0.100362 -0.176016 0.084919 0.113190 0.038393 0.168294 -0.204617 0.087078 0.031309 0.078161 -0.021245 -0.228576 -0.070913 0.048450 -0.088976 0.049078 0.012535 -0.128378 -0.123504 0.023614 -0.096806 0.011603 0.061432 0.002220 -0.053243 -0.082321 0.024515 -0.056002 0.094054 -0.002030 0.102542 -0.068855 0.164329 0.056804 0.036673 0.239387 0.046890 0.033776 0.188920 0.109915 0.021160 -0.006842 -0.188518 -0.000336 -0.058627 -0.026705 -0.050307 -0.047463 -0.007175 -0.142017 0.020128 0.071660
bimbingan -0.080253 0.037446 0.058699 -0.101388 0.080090 -0.018945 0.091076 0.015197 -0.121031 0.066850 0.023422 -0.132246 0.008109 -0.099693 0.015113 -0.017786 -0.101904 -0.049430 -0.032022 -0.041582 -0.023577 0.120575 -0.055562 0.054919 -0.000643 -0.009281 -0.012449 -0.002984 0.095318 -0.159798 0.000541 -0.094384 -0.075062 0.092424 -0.038234 -0.043133 0.083938 -0.003634 -0.025831 0.093208 -0.006386 -0.004943 -0.056108 0.022413 0.087519 0.052928 0.037538 0.132110 0.086902 -0.158878 0.076683 0.107901 0.032091 0.154445 -0.181447 0.083437 0.019914 0.068535 -0.015925 -0.202388 -0.061606 0.043765 -0.079152 0.047573 0.003806 -0.124086 -0.119000 0.024218 -0.088116 0.007398 0.055757 -0.005540 -0.049544 -0.079042 0.020175 -0.058921 0.092372 0.005571 0.089585 -0.058214 0.149462 0.049026 0.029356 0.210490 0.039753 0.028160 0.162344 0.097225 0.021652 -0.008934 -0.174076 -0.009191 -0.056751 -0.025248 -0.044342 -0.043431 -0.007807 -0.136880 0.017068 0.063070
tau -0.076530 0.034521 0.049660 -0.095500 0.070548 -0.013401 0.093214 0.020502 -0.112171 0.064201 0.031352 -0.129616 0.007090 -0.096337 0.014974 -0.022395 -0.093510 -0.051810 -0.030161 -0.036339 -0.020689 0.120035 -0.058479 0.049118 0.003365 -0.010224 -0.008091 -0.004074 0.090201 -0.149974 0.007878 -0.090541 -0.073598 0.082933 -0.039763 -0.042196 0.083778 -0.007279 -0.029420 0.085818 -0.004577 -0.009217 -0.054081 0.018463 0.080615 0.047569 0.037346 0.124453 0.084931 -0.153457 0.076603 0.092675 0.031161 0.138135 -0.172336 0.076636 0.026109 0.064204 -0.017979 -0.194297 -0.056956 0.038542 -0.079527 0.043098 0.002641 -0.113773 -0.108776 0.020716 -0.085152 0.004383 0.050227 0.002005 -0.053119 -0.071290 0.021566 -0.053074 0.087681 0.001459 0.089032 -0.051999 0.136091 0.043892 0.023840 0.204146 0.040001 0.031768 0.150701 0.091576 0.021675 -0.001312 -0.167338 -0.008943 -0.045290 -0.019272 -0.043313 -0.031097 -0.006000 -0.121268 0.014483 0.055701
Teknik -0.107913 0.044200 0.065247 -0.134916 0.100742 -0.021549 0.118773 0.028245 -0.151551 0.082911 0.039299 -0.170761 0.007745 -0.117176 0.014723 -0.030397 -0.126841 -0.067128 -0.042332 -0.050783 -0.031649 0.155546 -0.074747 0.073499 0.004334 -0.017831 -0.007356 -0.004048 0.123350 -0.201067 0.011413 -0.118210 -0.094554 0.120808 -0.043463 -0.049085 0.107340 -0.009644 -0.041936 0.119704 -0.002649 -0.003533 -0.068376 0.024651 0.100964 0.059308 0.045355 0.161907 0.107709 -0.202776 0.099438 0.133896 0.042662 0.186893 -0.224760 0.101075 0.025334 0.083550 -0.031684 -0.259601 -0.079977 0.046703 -0.103823 0.051910 0.011548 -0.154648 -0.146515 0.024620 -0.113690 0.004218 0.065474 -0.006714 -0.062277 -0.099925 0.031385 -0.065537 0.111437 0.000317 0.118073 -0.076602 0.183691 0.058339 0.036338 0.264705 0.047121 0.043114 0.205583 0.124657 0.028545 -0.011252 -0.217175 -0.007126 -0.065144 -0.030671 -0.061999 -0.044162 -0.005048 -0.162346 0.024536 0.078797
pelatihan -0.064278 0.024859 0.041519 -0.082690 0.062724 -0.012575 0.076323 0.018072 -0.097305 0.058241 0.025076 -0.108654 0.001999 -0.076852 0.008577 -0.018495 -0.080201 -0.040613 -0.023099 -0.038331 -0.022104 0.098498 -0.047158 0.045947 -0.001954 -0.015615 -0.010978 -0.006624 0.082368 -0.127136 0.009895 -0.076264 -0.062422 0.073893 -0.027735 -0.035758 0.070693 -0.004648 -0.025722 0.076975 -0.001707 -0.008895 -0.047967 0.016293 0.064872 0.040244 0.026221 0.105467 0.074232 -0.126837 0.063971 0.082735 0.026237 0.120076 -0.147273 0.063188 0.016588 0.052665 -0.016474 -0.170990 -0.046129 0.029657 -0.061033 0.036950 0.006379 -0.095523 -0.097428 0.019042 -0.073248 0.002563 0.040774 0.002071 -0.046120 -0.059610 0.019058 -0.049783 0.075317 0.003871 0.073198 -0.054323 0.117854 0.038715 0.027754 0.175856 0.029393 0.026341 0.137705 0.082076 0.015483 -0.007463 -0.145571 -0.002357 -0.038451 -0.021519 -0.040737 -0.035217 -0.006912 -0.111595 0.016146 0.054719
aktif -0.106953 0.039256 0.065353 -0.131774 0.099530 -0.014750 0.112493 0.021503 -0.151595 0.077555 0.040351 -0.164177 0.002846 -0.117433 0.022403 -0.028765 -0.132155 -0.064188 -0.041108 -0.055378 -0.032728 0.158299 -0.069942 0.074316 -0.000887 -0.015894 -0.013072 -0.007755 0.122812 -0.197968 0.004430 -0.119692 -0.090800 0.111339 -0.050171 -0.050473 0.108834 -0.011854 -0.039268 0.119559 -0.006270 -0.003864 -0.062478 0.025827 0.106038 0.065404 0.050120 0.160796 0.108872 -0.203199 0.098745 0.126039 0.032934 0.184914 -0.223179 0.103668 0.029655 0.087668 -0.031115 -0.256557 -0.071144 0.044707 -0.103718 0.056418 0.003516 -0.153125 -0.143451 0.023616 -0.113579 0.011258 0.064536 0.001570 -0.064512 -0.096036 0.024759 -0.069568 0.106684 0.001441 0.115654 -0.073544 0.185659 0.062655 0.032233 0.264755 0.045340 0.045985 0.206696 0.120532 0.028477 -0.003841 -0.219820 -0.001046 -0.068239 -0.028038 -0.058025 -0.049213 -0.011284 -0.166944 0.014097 0.082363
himpunan -0.091232 0.038598 0.057302 -0.125833 0.089591 -0.017996 0.101218 0.020896 -0.136419 0.076518 0.034938 -0.154953 0.012037 -0.106577 0.014380 -0.027402 -0.113088 -0.054896 -0.032240 -0.046590 -0.029450 0.140012 -0.070605 0.059305 -0.002196 -0.019738 -0.013588 -0.004368 0.114802 -0.178042 0.002062 -0.105059 -0.081324 0.101133 -0.047267 -0.041942 0.104411 -0.004828 -0.036066 0.103095 -0.001563 -0.007239 -0.064749 0.023242 0.095179 0.057066 0.041197 0.147184 0.101675 -0.181813 0.085084 0.113664 0.030986 0.169825 -0.208532 0.092582 0.024403 0.082717 -0.025257 -0.231010 -0.067861 0.043634 -0.095095 0.052098 0.005671 -0.132282 -0.128739 0.019835 -0.098619 0.009456 0.058892 -0.003027 -0.053371 -0.089151 0.025364 -0.061816 0.102866 0.005780 0.106629 -0.071981 0.169241 0.054529 0.029774 0.242651 0.048884 0.042504 0.186262 0.107172 0.022733 -0.000826 -0.192630 -0.009497 -0.056350 -0.021475 -0.050857 -0.043055 -0.010187 -0.152867 0.015604 0.070809
ibadah -0.085412 0.031152 0.052012 -0.103231 0.081318 -0.015068 0.095022 0.024059 -0.117819 0.064729 0.025895 -0.131393 0.009670 -0.100017 0.015145 -0.024901 -0.099814 -0.048728 -0.031741 -0.045166 -0.024710 0.118355 -0.058781 0.053177 -0.002236 -0.013660 -0.008037 0.002609 0.091144 -0.162965 0.008837 -0.089253 -0.073893 0.092873 -0.034482 -0.038575 0.087798 -0.007413 -0.025938 0.098050 -0.003239 -0.008178 -0.052724 0.016480 0.083706 0.049150 0.035907 0.129996 0.087103 -0.157388 0.075527 0.103752 0.028783 0.152066 -0.184669 0.084005 0.024466 0.066884 -0.017234 -0.208954 -0.057004 0.033856 -0.076310 0.041027 0.007963 -0.117135 -0.118192 0.023783 -0.091416 0.008762 0.058048 0.002442 -0.053833 -0.077697 0.025649 -0.057323 0.085324 0.006821 0.090437 -0.062869 0.149082 0.049402 0.025235 0.213836 0.038929 0.031250 0.165454 0.090193 0.018441 -0.005284 -0.174296 -0.006931 -0.055545 -0.017701 -0.049721 -0.034699 -0.012451 -0.131538 0.017543 0.056545
diadakan -0.055110 0.020631 0.034680 -0.069432 0.046387 -0.006013 0.065765 0.012214 -0.079760 0.045640 0.014259 -0.091940 0.006989 -0.068200 0.008052 -0.013537 -0.069060 -0.037831 -0.024508 -0.031505 -0.010830 0.082333 -0.035211 0.032885 0.001944 -0.012634 -0.010290 0.001060 0.067628 -0.107683 0.000462 -0.063184 -0.045617 0.065476 -0.022609 -0.026160 0.056540 -0.006588 -0.021568 0.065873 -0.004192 -0.006303 -0.039857 0.011868 0.057802 0.032093 0.022024 0.083886 0.058348 -0.107720 0.055148 0.067936 0.022421 0.100229 -0.120590 0.053295 0.011963 0.046971 -0.010661 -0.133183 -0.044182 0.023686 -0.050333 0.033639 0.010082 -0.075423 -0.078896 0.019952 -0.060659 0.001188 0.036887 0.001338 -0.036470 -0.044954 0.018881 -0.031867 0.059488 0.000847 0.056835 -0.041271 0.092944 0.029562 0.018636 0.141902 0.029798 0.019592 0.108732 0.065429 0.018463 -0.006732 -0.115667 -0.000838 -0.032687 -0.018277 -0.035456 -0.025659 -0.002875 -0.087444 0.014857 0.035213
mohon -0.076246 0.028634 0.052245 -0.097905 0.072635 -0.014113 0.086505 0.017056 -0.113148 0.060510 0.022636 -0.123164 -0.000023 -0.090486 0.014671 -0.024326 -0.096618 -0.047504 -0.032353 -0.040872 -0.021732 0.113513 -0.048528 0.048232 0.000948 -0.015314 -0.008520 -0.006434 0.089959 -0.137530 0.009973 -0.078553 -0.067719 0.084652 -0.029932 -0.031922 0.079837 -0.008388 -0.022279 0.086100 -0.006984 -0.007950 -0.047117 0.018898 0.077198 0.051034 0.034381 0.120896 0.078709 -0.144322 0.068669 0.092297 0.028102 0.131620 -0.164743 0.067919 0.020751 0.066055 -0.021272 -0.178382 -0.056532 0.039703 -0.074788 0.044784 0.001477 -0.103801 -0.107383 0.016839 -0.077403 0.008996 0.044514 0.000820 -0.044246 -0.066026 0.022074 -0.051742 0.083126 0.006895 0.079089 -0.051376 0.132560 0.047447 0.030843 0.190811 0.033212 0.033254 0.148153 0.084674 0.022900 -0.004415 -0.151925 0.000675 -0.051662 -0.021682 -0.043601 -0.032164 -0.008889 -0.116962 0.017261 0.054198
teknik -0.116686 0.046800 0.072373 -0.143672 0.111570 -0.016676 0.130069 0.026425 -0.169290 0.094663 0.036540 -0.184130 0.005936 -0.132781 0.018427 -0.033765 -0.143096 -0.066129 -0.039375 -0.054854 -0.030209 0.170549 -0.079710 0.081137 -0.003840 -0.021852 -0.012910 -0.008853 0.134543 -0.222894 0.012231 -0.123860 -0.107951 0.124319 -0.056022 -0.051583 0.117151 -0.006760 -0.038586 0.129902 -0.004024 -0.008450 -0.071453 0.023974 0.116080 0.072307 0.053922 0.181361 0.122512 -0.224178 0.104845 0.146355 0.046505 0.204935 -0.248584 0.114658 0.038058 0.094706 -0.027320 -0.278879 -0.080143 0.053146 -0.109156 0.065177 0.012154 -0.162069 -0.162511 0.024530 -0.128412 0.013415 0.075729 -0.001629 -0.067690 -0.105799 0.031898 -0.076856 0.127706 0.004898 0.122967 -0.081741 0.204478 0.063657 0.043810 0.289631 0.053134 0.041060 0.227296 0.136326 0.031676 -0.004053 -0.243849 -0.005385 -0.068617 -0.029515 -0.070879 -0.051076 -0.011480 -0.186980 0.019313 0.088718
diperhatikan -0.096572 0.038885 0.060816 -0.128030 0.089997 -0.013311 0.110564 0.024189 -0.140103 0.079019 0.035315 -0.159481 0.010493 -0.112276 0.023092 -0.030459 -0.124550 -0.057477 -0.039790 -0.049533 -0.030150 0.145818 -0.074643 0.064835 0.000831 -0.015903 -0.011884 -0.006487 0.113145 -0.191733 0.010620 -0.114280 -0.091895 0.106089 -0.044208 -0.048386 0.101827 -0.004756 -0.032529 0.114687 -0.001657 -0.011594 -0.067553 0.024312 0.097255 0.058110 0.039877 0.159243 0.099988 -0.194312 0.091276 0.123608 0.036514 0.177887 -0.212562 0.094313 0.028816 0.079050 -0.024108 -0.248214 -0.070396 0.048564 -0.096822 0.054649 0.007689 -0.143143 -0.138589 0.024072 -0.103722 0.009604 0.065381 0.002095 -0.058377 -0.093187 0.024410 -0.064161 0.109019 0.006477 0.113688 -0.076007 0.175749 0.055797 0.029729 0.256887 0.048994 0.040249 0.197159 0.111826 0.026239 -0.006571 -0.209883 -0.005327 -0.058294 -0.028226 -0.059327 -0.044635 -0.007873 -0.162994 0.018865 0.072981
pengalaman -0.088493 0.037279 0.052450 -0.111756 0.080804 -0.010012 0.100477 0.016092 -0.121551 0.066328 0.025714 -0.138017 0.004147 -0.105499 0.016154 -0.021978 -0.105462 -0.049465 -0.034505 -0.039141 -0.025414 0.128569 -0.062043 0.058528 0.001222 -0.015895 -0.013652 -0.002410 0.098584 -0.170507 0.007538 -0.092978 -0.078113 0.098239 -0.038690 -0.037042 0.086284 -0.008485 -0.029321 0.102171 -0.009335 -0.008254 -0.053505 0.024987 0.090116 0.048603 0.038134 0.137589 0.088488 -0.169003 0.076150 0.108133 0.029658 0.159597 -0.185892 0.080107 0.020659 0.074364 -0.024879 -0.214951 -0.063438 0.041193 -0.083317 0.050752 0.008618 -0.122627 -0.125710 0.020300 -0.095316 0.009796 0.057748 0.002117 -0.049345 -0.080161 0.029616 -0.055236 0.096609 0.006566 0.089588 -0.061857 0.151071 0.054699 0.024976 0.225001 0.038224 0.033246 0.172142 0.097023 0.024413 -0.006724 -0.183998 -0.005404 -0.050385 -0.024914 -0.047777 -0.036749 -0.010088 -0.134253 0.021248 0.061142
jadwal -0.082528 0.036761 0.052568 -0.099167 0.072352 -0.009045 0.088602 0.016225 -0.118390 0.068080 0.029979 -0.132317 0.008153 -0.091685 0.018209 -0.017028 -0.104825 -0.046058 -0.026203 -0.040031 -0.021535 0.120893 -0.054261 0.051620 -0.001659 -0.008938 -0.007934 -0.008590 0.088766 -0.156457 0.009890 -0.085833 -0.074636 0.087633 -0.036768 -0.039770 0.088336 -0.009220 -0.028115 0.086548 0.000557 -0.006212 -0.048326 0.016944 0.081152 0.048134 0.035300 0.125464 0.084116 -0.160217 0.078881 0.099806 0.034112 0.147865 -0.176206 0.079309 0.023276 0.066507 -0.022609 -0.193799 -0.055402 0.037555 -0.080846 0.038737 0.003011 -0.113770 -0.114378 0.020250 -0.082647 0.002222 0.055531 -0.000914 -0.054476 -0.072486 0.026506 -0.050362 0.085220 0.007456 0.089886 -0.062295 0.145815 0.045406 0.026466 0.205513 0.034271 0.030577 0.163083 0.094257 0.024892 -0.009303 -0.173489 -0.005380 -0.053805 -0.016918 -0.049531 -0.036570 -0.003231 -0.133835 0.009848 0.064264
kedepannya -0.089755 0.037318 0.056010 -0.114011 0.075579 -0.014971 0.092444 0.016796 -0.125801 0.072442 0.027426 -0.142666 0.006253 -0.096336 0.020217 -0.024176 -0.111088 -0.056500 -0.035245 -0.047537 -0.023324 0.131189 -0.066217 0.060714 -0.000872 -0.014243 -0.005751 -0.002508 0.101158 -0.163736 0.006326 -0.093110 -0.079305 0.099662 -0.043169 -0.046378 0.091677 -0.008964 -0.026123 0.095766 -0.008938 -0.009997 -0.055962 0.018723 0.089102 0.047804 0.041628 0.132508 0.093481 -0.162603 0.075808 0.102291 0.029640 0.153747 -0.184810 0.087214 0.022198 0.075825 -0.017622 -0.212676 -0.058547 0.043767 -0.084759 0.051453 0.004779 -0.128735 -0.117238 0.023458 -0.097720 0.008601 0.061330 0.002148 -0.051115 -0.081756 0.024974 -0.052901 0.090083 0.004296 0.089157 -0.066928 0.152582 0.048008 0.025506 0.219721 0.038782 0.033703 0.176543 0.102222 0.018793 0.000019 -0.181835 0.000361 -0.055029 -0.025132 -0.044775 -0.036819 -0.011448 -0.140302 0.011818 0.064794
bakat -0.046908 0.020548 0.031427 -0.061309 0.038446 -0.008849 0.046968 0.012962 -0.062253 0.035989 0.018644 -0.069970 0.001978 -0.052915 0.011515 -0.014957 -0.058715 -0.022827 -0.018533 -0.025495 -0.012902 0.064536 -0.032512 0.033385 -0.001265 -0.011876 -0.008821 -0.002675 0.050075 -0.087189 -0.000576 -0.055617 -0.042936 0.046640 -0.022327 -0.021982 0.050053 0.000389 -0.017240 0.055391 -0.004137 -0.000868 -0.032679 0.008096 0.048117 0.026970 0.015425 0.076077 0.049993 -0.088427 0.043468 0.058323 0.014514 0.078791 -0.099566 0.047022 0.007472 0.032699 -0.016202 -0.109428 -0.037287 0.022830 -0.046664 0.020301 0.000019 -0.066840 -0.066241 0.011906 -0.052316 0.000896 0.032678 -0.004572 -0.026968 -0.043156 0.008065 -0.028870 0.046595 0.002391 0.047478 -0.030228 0.083945 0.026311 0.015026 0.119663 0.017166 0.021243 0.092431 0.056995 0.006520 -0.006225 -0.092608 -0.005157 -0.031594 -0.014067 -0.026847 -0.022231 -0.003830 -0.076426 0.004546 0.038155
komputer -0.060441 0.030362 0.036816 -0.085317 0.056002 -0.009029 0.074450 0.014398 -0.093714 0.051132 0.019941 -0.101367 0.004014 -0.071457 0.010167 -0.019572 -0.079378 -0.041879 -0.019013 -0.032084 -0.023381 0.093342 -0.043168 0.037269 0.001725 -0.005318 -0.012348 -0.003757 0.074176 -0.121629 0.006828 -0.069824 -0.063852 0.070905 -0.034145 -0.033838 0.062891 -0.004014 -0.020845 0.074396 -0.000876 0.000947 -0.045390 0.018168 0.068120 0.034810 0.024535 0.099826 0.063325 -0.120565 0.056179 0.077781 0.022622 0.119977 -0.145114 0.058134 0.022682 0.057386 -0.011174 -0.162620 -0.052090 0.031898 -0.058909 0.031355 0.006246 -0.096484 -0.094128 0.021524 -0.071896 -0.001193 0.040437 -0.002959 -0.037087 -0.063888 0.022227 -0.042095 0.068631 0.000332 0.067763 -0.049213 0.115244 0.036670 0.022263 0.160079 0.032584 0.024782 0.124538 0.069145 0.014286 -0.004777 -0.137391 -0.000988 -0.037069 -0.021896 -0.034625 -0.032907 -0.011833 -0.097575 0.011511 0.046087
orang -0.103037 0.045368 0.073294 -0.136148 0.103309 -0.021319 0.114161 0.027427 -0.153741 0.082186 0.031039 -0.163734 0.012241 -0.125735 0.021730 -0.034429 -0.129384 -0.058574 -0.040277 -0.053820 -0.029058 0.160047 -0.077576 0.068935 0.000919 -0.014218 -0.015256 -0.003578 0.119054 -0.203612 0.011307 -0.122430 -0.100643 0.118342 -0.043921 -0.048236 0.112552 -0.008208 -0.037067 0.124572 -0.005726 -0.004508 -0.066941 0.022097 0.109565 0.064074 0.051807 0.166580 0.110147 -0.200039 0.092594 0.128074 0.043575 0.187369 -0.229786 0.108201 0.025318 0.089662 -0.025385 -0.258793 -0.078995 0.048797 -0.103763 0.056087 0.011749 -0.151201 -0.149742 0.032227 -0.115129 0.013851 0.073916 -0.002373 -0.067970 -0.103180 0.033173 -0.074130 0.110934 0.004063 0.119236 -0.079124 0.191774 0.059546 0.036741 0.274638 0.052192 0.041886 0.209353 0.126372 0.024542 -0.008189 -0.220408 -0.010667 -0.067589 -0.024538 -0.061753 -0.049963 -0.007482 -0.169193 0.020999 0.076655
berharap -0.095418 0.035512 0.063099 -0.118737 0.090782 -0.011708 0.107421 0.019912 -0.134586 0.070536 0.027806 -0.147083 0.007533 -0.114546 0.014939 -0.021200 -0.113814 -0.058402 -0.037197 -0.045750 -0.025009 0.135089 -0.065884 0.066241 -0.005020 -0.010161 -0.007919 -0.008577 0.107982 -0.179312 0.010024 -0.100501 -0.082780 0.103991 -0.042371 -0.041337 0.094055 -0.005437 -0.035054 0.110025 -0.000406 -0.008859 -0.056676 0.020376 0.087761 0.055935 0.045079 0.150143 0.099714 -0.183680 0.084857 0.113064 0.035478 0.165607 -0.208802 0.086170 0.030478 0.080318 -0.020730 -0.234121 -0.066813 0.040508 -0.094517 0.052987 0.002878 -0.140558 -0.126029 0.028012 -0.100327 0.009642 0.058867 -0.005417 -0.061145 -0.082042 0.027182 -0.066052 0.100187 0.004665 0.106238 -0.069737 0.163806 0.058528 0.030774 0.240043 0.041361 0.042718 0.184644 0.108967 0.020270 -0.002356 -0.193671 -0.005918 -0.059385 -0.023172 -0.058450 -0.039243 -0.012613 -0.148136 0.016774 0.070702
mengambil -0.084925 0.034098 0.054186 -0.113283 0.083126 -0.016606 0.100071 0.025266 -0.128428 0.070394 0.029051 -0.134066 0.011492 -0.100424 0.016259 -0.022665 -0.102182 -0.048455 -0.027969 -0.042756 -0.027841 0.130637 -0.063883 0.051404 -0.004764 -0.009084 -0.006345 -0.003315 0.104788 -0.164469 0.004375 -0.090485 -0.079640 0.096158 -0.040706 -0.043255 0.087794 -0.006422 -0.032124 0.101625 -0.006318 -0.007236 -0.050569 0.021008 0.087421 0.052283 0.035296 0.136476 0.088724 -0.168956 0.075106 0.103346 0.031352 0.158804 -0.186857 0.083104 0.023176 0.075519 -0.026024 -0.212295 -0.061722 0.045569 -0.085792 0.050918 0.002386 -0.124951 -0.125129 0.020882 -0.092736 0.011049 0.056034 -0.005247 -0.050443 -0.081008 0.027586 -0.061868 0.086932 0.004020 0.097496 -0.058979 0.150543 0.055067 0.028882 0.220252 0.044687 0.028742 0.173603 0.098928 0.023800 -0.006650 -0.176232 -0.001413 -0.057986 -0.021980 -0.053095 -0.038638 -0.012685 -0.137948 0.015638 0.068091
mandiri -0.095591 0.043739 0.064612 -0.125231 0.094209 -0.013260 0.113527 0.023024 -0.143621 0.080345 0.035005 -0.158538 0.003566 -0.112804 0.014077 -0.026977 -0.120792 -0.058025 -0.034444 -0.054845 -0.027296 0.144309 -0.064832 0.059622 -0.003842 -0.010104 -0.007848 0.000326 0.106980 -0.188261 0.003091 -0.111653 -0.090681 0.105867 -0.042039 -0.044153 0.099310 -0.008252 -0.038490 0.110970 -0.005757 -0.009825 -0.058684 0.026661 0.097134 0.055183 0.047651 0.151516 0.106303 -0.183651 0.092756 0.119785 0.036126 0.179528 -0.212363 0.095323 0.030528 0.077836 -0.025383 -0.239737 -0.075629 0.047409 -0.096680 0.048769 0.007500 -0.142681 -0.133443 0.023986 -0.100132 0.003426 0.060940 -0.006067 -0.062277 -0.087413 0.026251 -0.061214 0.103764 0.006706 0.109302 -0.070180 0.168147 0.056081 0.036185 0.243136 0.044426 0.033199 0.195279 0.112987 0.024553 -0.001933 -0.195215 -0.007023 -0.064231 -0.030862 -0.052335 -0.044491 -0.010694 -0.158383 0.018332 0.072085
menyediakan -0.062972 0.020819 0.043773 -0.076839 0.061376 -0.007841 0.068173 0.017767 -0.091770 0.052334 0.023548 -0.096510 0.004740 -0.076412 0.007717 -0.020771 -0.072272 -0.033501 -0.028662 -0.028038 -0.015414 0.094427 -0.045952 0.045778 -0.000846 -0.012286 -0.011798 0.002518 0.072216 -0.116573 0.007081 -0.069987 -0.052959 0.071981 -0.024755 -0.029953 0.067765 -0.009168 -0.020327 0.074891 -0.000764 -0.004421 -0.044288 0.010149 0.056640 0.037641 0.026237 0.095676 0.068998 -0.120257 0.056244 0.078330 0.025028 0.117733 -0.140772 0.055166 0.016667 0.051216 -0.012617 -0.154598 -0.041621 0.033027 -0.060931 0.035913 0.001820 -0.090403 -0.087480 0.020877 -0.065320 0.002353 0.040134 -0.004083 -0.040903 -0.052315 0.016200 -0.040872 0.068739 0.003741 0.067885 -0.049553 0.109373 0.033762 0.020484 0.163327 0.031552 0.028636 0.126836 0.068902 0.014141 -0.008119 -0.135582 -0.000322 -0.042889 -0.018754 -0.037747 -0.029807 -0.003149 -0.096895 0.009524 0.050204
teknologi -0.081279 0.031108 0.050246 -0.114368 0.079432 -0.015914 0.100352 0.020767 -0.129442 0.073717 0.030375 -0.142812 0.011148 -0.102624 0.013460 -0.027556 -0.107867 -0.055950 -0.037767 -0.042286 -0.026915 0.129352 -0.065915 0.061364 0.002631 -0.014460 -0.006028 -0.002861 0.103753 -0.167668 0.009445 -0.099080 -0.081639 0.096634 -0.041935 -0.044451 0.091100 -0.009534 -0.029354 0.097414 -0.004176 -0.002737 -0.060287 0.019462 0.090005 0.053305 0.039783 0.137646 0.089435 -0.168482 0.078825 0.107065 0.029248 0.158012 -0.190598 0.088363 0.027196 0.067853 -0.026146 -0.216834 -0.066792 0.044659 -0.085928 0.047706 0.004535 -0.128436 -0.120831 0.021246 -0.093775 0.005784 0.059278 -0.001475 -0.057779 -0.079033 0.023628 -0.052372 0.097149 0.005792 0.092873 -0.067717 0.158795 0.050356 0.030119 0.224007 0.036969 0.038770 0.169546 0.099426 0.018131 -0.003280 -0.178743 -0.001111 -0.057842 -0.025093 -0.045770 -0.035250 -0.006934 -0.132617 0.014486 0.066407
progres -0.087840 0.039296 0.056578 -0.114450 0.082179 -0.017646 0.101534 0.023073 -0.128557 0.074013 0.029631 -0.137486 0.005099 -0.101310 0.014998 -0.025339 -0.107040 -0.057359 -0.031989 -0.044101 -0.029224 0.123114 -0.064633 0.061070 0.002950 -0.015025 -0.011688 -0.000684 0.102313 -0.167630 0.006168 -0.092922 -0.073582 0.091871 -0.039195 -0.045618 0.094963 -0.002214 -0.035346 0.098455 -0.002303 -0.004249 -0.054120 0.016818 0.087121 0.055556 0.040535 0.141755 0.092235 -0.162685 0.079903 0.106715 0.031836 0.160890 -0.192227 0.084286 0.020399 0.068078 -0.025533 -0.217707 -0.069882 0.044118 -0.080231 0.048461 0.002978 -0.128621 -0.126576 0.021962 -0.093093 0.004650 0.057920 0.001066 -0.055719 -0.083193 0.020969 -0.053152 0.092002 0.002353 0.095970 -0.064919 0.152605 0.055714 0.033990 0.217933 0.037669 0.036627 0.168939 0.097564 0.017632 -0.009649 -0.182732 -0.000171 -0.059709 -0.019627 -0.053699 -0.043217 -0.012923 -0.133334 0.016812 0.061228
program -0.077880 0.038499 0.053666 -0.101608 0.080098 -0.014430 0.096499 0.022984 -0.115071 0.066126 0.022502 -0.132816 0.004800 -0.091841 0.012693 -0.027360 -0.097410 -0.049628 -0.029529 -0.041086 -0.026036 0.117248 -0.056936 0.056731 -0.000308 -0.017229 -0.005006 -0.000634 0.094885 -0.155745 0.001820 -0.094928 -0.077610 0.095041 -0.035476 -0.035923 0.087013 -0.004796 -0.024348 0.091475 -0.002536 -0.005607 -0.054778 0.024531 0.079660 0.052596 0.032777 0.130583 0.091945 -0.154565 0.072000 0.101832 0.031420 0.149057 -0.179037 0.078310 0.021877 0.067955 -0.019317 -0.201403 -0.063643 0.034555 -0.076397 0.046311 0.001505 -0.113201 -0.111911 0.019750 -0.082467 0.002825 0.048687 0.000656 -0.055116 -0.076061 0.022090 -0.052145 0.088391 0.007770 0.085324 -0.063634 0.142111 0.048757 0.022815 0.204902 0.034634 0.036659 0.166632 0.097000 0.022068 -0.005376 -0.173206 -0.003095 -0.051769 -0.026608 -0.045620 -0.041056 -0.005627 -0.133385 0.013230 0.058559
bingung -0.054992 0.027873 0.034572 -0.072986 0.052197 -0.010908 0.058985 0.015408 -0.077812 0.048133 0.018751 -0.085265 0.006000 -0.063343 0.011911 -0.013527 -0.067452 -0.037470 -0.022496 -0.026305 -0.016008 0.083630 -0.036395 0.034564 -0.000907 -0.009762 -0.008838 0.001277 0.062694 -0.104176 -0.000541 -0.062127 -0.050526 0.063266 -0.024667 -0.030748 0.063013 -0.003317 -0.024128 0.057126 0.000042 -0.005539 -0.032216 0.016078 0.053347 0.034071 0.026597 0.084388 0.061048 -0.110345 0.052310 0.069648 0.017418 0.098690 -0.119382 0.053199 0.015032 0.050695 -0.008680 -0.134818 -0.042357 0.023713 -0.049556 0.030631 0.009590 -0.085145 -0.074724 0.010456 -0.063544 0.002737 0.039057 -0.005645 -0.029918 -0.048317 0.015495 -0.032933 0.054268 0.002545 0.058678 -0.040287 0.097150 0.032941 0.022223 0.137393 0.029795 0.024425 0.107714 0.058891 0.010585 0.001271 -0.116175 -0.000202 -0.036148 -0.013198 -0.030279 -0.026656 -0.004822 -0.090188 0.015247 0.040269
penyebaran -0.063555 0.025017 0.043836 -0.085188 0.057319 -0.013265 0.069741 0.014560 -0.090319 0.050046 0.018207 -0.101511 0.005764 -0.077097 0.008610 -0.015399 -0.075552 -0.042078 -0.026352 -0.030315 -0.019431 0.096372 -0.040985 0.044133 -0.003423 -0.009812 -0.003624 0.001096 0.073142 -0.116713 0.009057 -0.071802 -0.059494 0.073661 -0.031184 -0.033716 0.062812 -0.008215 -0.021214 0.069511 -0.008761 -0.001178 -0.038802 0.009792 0.057822 0.040616 0.025426 0.100159 0.061416 -0.119522 0.059781 0.073505 0.025140 0.118214 -0.140051 0.064392 0.012904 0.049897 -0.015755 -0.158009 -0.045267 0.032691 -0.058172 0.033304 0.009344 -0.087703 -0.089354 0.020583 -0.070283 -0.000255 0.045921 -0.001182 -0.038045 -0.053846 0.014321 -0.038260 0.068383 0.000078 0.063567 -0.046033 0.110024 0.032937 0.022291 0.158629 0.032514 0.019772 0.127635 0.073213 0.020600 -0.002933 -0.132218 -0.004976 -0.035113 -0.012471 -0.034284 -0.034064 -0.010484 -0.096086 0.012434 0.046668
Adanya -0.051221 0.025661 0.033362 -0.067807 0.047015 -0.009120 0.060188 0.015922 -0.078654 0.044379 0.021904 -0.083081 0.004528 -0.056866 0.013126 -0.016354 -0.059359 -0.027418 -0.019417 -0.029522 -0.012219 0.071674 -0.039627 0.036562 -0.002195 -0.011133 -0.008259 0.001326 0.061793 -0.098738 0.002961 -0.062521 -0.051250 0.058860 -0.022385 -0.028838 0.050509 -0.000353 -0.017618 0.055639 -0.004791 -0.008427 -0.033198 0.008065 0.056005 0.035686 0.022931 0.076848 0.051261 -0.098099 0.042936 0.068374 0.015071 0.095236 -0.110614 0.052174 0.013788 0.044550 -0.017290 -0.129080 -0.036755 0.022122 -0.052731 0.031635 0.005333 -0.069799 -0.076417 0.015719 -0.058498 0.003000 0.034571 -0.003279 -0.033282 -0.044402 0.011619 -0.038316 0.058658 0.000731 0.057992 -0.040997 0.091759 0.035180 0.013475 0.129078 0.024762 0.024558 0.105839 0.057177 0.011750 -0.003132 -0.102756 0.002506 -0.036190 -0.014308 -0.031624 -0.025904 -0.002587 -0.078186 0.006144 0.033866
perkuliahan -0.054025 0.023738 0.035464 -0.062888 0.053027 -0.013559 0.060617 0.014281 -0.079762 0.044870 0.014755 -0.087228 -0.000047 -0.064536 0.008339 -0.014786 -0.067186 -0.030808 -0.015703 -0.029674 -0.018581 0.077029 -0.035660 0.035257 -0.000401 -0.003657 -0.009246 0.003033 0.055638 -0.095500 0.005625 -0.061340 -0.047241 0.058478 -0.019309 -0.028734 0.057288 -0.007462 -0.013214 0.059658 0.000605 -0.002356 -0.036624 0.015938 0.055139 0.028664 0.025306 0.079710 0.054368 -0.100869 0.051372 0.067235 0.023583 0.091693 -0.110753 0.047101 0.012900 0.046977 -0.011404 -0.125527 -0.039215 0.026809 -0.050242 0.031897 0.004656 -0.077825 -0.074942 0.011056 -0.053474 0.004413 0.038865 0.001737 -0.032173 -0.045549 0.015127 -0.038145 0.057497 -0.001033 0.054530 -0.035427 0.094588 0.032096 0.017034 0.127580 0.025931 0.016682 0.105961 0.056153 0.015638 -0.000354 -0.108356 -0.005256 -0.034177 -0.010699 -0.027432 -0.021810 -0.004923 -0.086674 0.009232 0.037003
Tolong -0.068651 0.025684 0.041841 -0.090571 0.062103 -0.014718 0.082917 0.014836 -0.109570 0.061995 0.024793 -0.113027 0.009560 -0.087837 0.016978 -0.024319 -0.086161 -0.042874 -0.027571 -0.038912 -0.018296 0.103370 -0.051110 0.050791 0.003181 -0.014455 -0.005576 -0.006072 0.084536 -0.142004 0.000895 -0.077984 -0.068525 0.080813 -0.032526 -0.030162 0.072890 -0.006172 -0.028881 0.086250 -0.001970 -0.006228 -0.042689 0.022118 0.076240 0.044553 0.031486 0.112303 0.080311 -0.135446 0.066427 0.086082 0.023142 0.134914 -0.160060 0.067419 0.020008 0.055975 -0.014932 -0.173279 -0.054405 0.039399 -0.071471 0.037937 0.000735 -0.105385 -0.097166 0.017885 -0.081946 0.008742 0.047937 -0.003448 -0.047798 -0.063085 0.025476 -0.046792 0.073052 0.004619 0.081556 -0.054114 0.126876 0.047830 0.022490 0.187302 0.033978 0.032696 0.149122 0.077780 0.022487 -0.006613 -0.152253 -0.006955 -0.045295 -0.019925 -0.038688 -0.036770 -0.008790 -0.111450 0.017217 0.052673
Informatika -0.097465 0.037555 0.065612 -0.129949 0.099789 -0.013416 0.119324 0.026404 -0.151893 0.079877 0.031654 -0.167154 0.007632 -0.123137 0.016958 -0.023738 -0.131215 -0.067146 -0.043911 -0.053179 -0.026140 0.155528 -0.074458 0.065438 0.000690 -0.017818 -0.015924 0.000140 0.121664 -0.199501 0.003723 -0.115861 -0.097928 0.117295 -0.049353 -0.053915 0.109426 -0.011566 -0.034187 0.111831 -0.001982 -0.002518 -0.068632 0.024027 0.097485 0.057547 0.044577 0.158043 0.113034 -0.198962 0.095419 0.126850 0.035403 0.187044 -0.225547 0.095970 0.028645 0.080457 -0.031054 -0.254880 -0.070694 0.051983 -0.097364 0.059502 0.004418 -0.153648 -0.143844 0.025777 -0.113204 0.002542 0.063748 -0.002127 -0.060833 -0.089763 0.028690 -0.062972 0.104784 0.008211 0.113791 -0.077025 0.185202 0.063392 0.030004 0.261893 0.048431 0.036979 0.201853 0.113675 0.029306 -0.002046 -0.216119 -0.008054 -0.064039 -0.030686 -0.061050 -0.042989 -0.010248 -0.161813 0.020232 0.079809
proses -0.091094 0.043132 0.067032 -0.122193 0.087203 -0.017718 0.106315 0.025172 -0.140732 0.081630 0.034490 -0.158097 0.012835 -0.115037 0.016421 -0.022113 -0.119722 -0.054007 -0.032290 -0.050305 -0.025162 0.139619 -0.073793 0.068907 -0.001738 -0.015696 -0.007825 -0.006794 0.117207 -0.190115 0.010619 -0.103660 -0.092639 0.111963 -0.048723 -0.044577 0.104491 -0.010349 -0.034376 0.104434 -0.005549 -0.008151 -0.065318 0.023628 0.098270 0.063922 0.039789 0.148246 0.101436 -0.189182 0.087226 0.115392 0.037595 0.174883 -0.213098 0.098089 0.024979 0.077812 -0.023757 -0.242816 -0.073325 0.050931 -0.089757 0.052070 0.012906 -0.142537 -0.138135 0.029127 -0.101481 0.002512 0.068677 -0.006531 -0.062300 -0.090891 0.025417 -0.064486 0.104070 0.006054 0.106569 -0.072303 0.171967 0.055671 0.028888 0.249864 0.039944 0.040014 0.191226 0.109287 0.024415 -0.009639 -0.206985 -0.006277 -0.055320 -0.021677 -0.058748 -0.044865 -0.007884 -0.150826 0.015633 0.077814
kalo -0.094984 0.039480 0.063332 -0.122799 0.092355 -0.018404 0.107029 0.022616 -0.139649 0.072045 0.030460 -0.159206 0.005427 -0.110138 0.021869 -0.022960 -0.125719 -0.053732 -0.032580 -0.050495 -0.031428 0.141342 -0.073836 0.063668 -0.002289 -0.018714 -0.014139 -0.005006 0.112872 -0.187972 0.006240 -0.107339 -0.091877 0.110055 -0.043590 -0.048792 0.098469 -0.010143 -0.036731 0.112753 -0.007489 -0.009415 -0.065981 0.022688 0.091939 0.054574 0.047433 0.151414 0.107874 -0.189612 0.094815 0.124240 0.031625 0.179998 -0.215154 0.089407 0.029810 0.080270 -0.019546 -0.236999 -0.066662 0.046862 -0.097258 0.047993 0.007127 -0.140282 -0.131080 0.028311 -0.108282 0.006854 0.069802 0.003409 -0.055000 -0.087341 0.027350 -0.063425 0.105973 0.003440 0.110349 -0.069915 0.174902 0.059880 0.032185 0.249578 0.043188 0.040399 0.195718 0.106321 0.026952 -0.002691 -0.199163 -0.006017 -0.064057 -0.022415 -0.052179 -0.042872 -0.013516 -0.158795 0.017815 0.067538
bagus -0.067614 0.030158 0.042597 -0.082092 0.060622 -0.014324 0.078097 0.019488 -0.101460 0.058360 0.019501 -0.107460 0.000977 -0.082193 0.009960 -0.020679 -0.086721 -0.045338 -0.021174 -0.032207 -0.023007 0.102285 -0.049855 0.041829 0.000010 -0.013102 -0.012083 -0.002157 0.076964 -0.128515 0.003118 -0.080422 -0.059448 0.071990 -0.034124 -0.032918 0.070481 -0.001568 -0.026499 0.075138 0.000875 -0.007980 -0.041597 0.013227 0.065659 0.040102 0.025569 0.104051 0.073168 -0.126988 0.063299 0.081202 0.028625 0.118691 -0.148213 0.063604 0.014776 0.059634 -0.019502 -0.164159 -0.049811 0.033372 -0.060442 0.040750 0.009939 -0.102872 -0.094338 0.017130 -0.067674 0.001010 0.043311 -0.003537 -0.036782 -0.063153 0.016865 -0.043790 0.068218 0.004083 0.070392 -0.054346 0.123850 0.042026 0.020823 0.168940 0.032793 0.025198 0.132817 0.081355 0.013285 -0.003272 -0.143522 -0.008106 -0.046642 -0.014895 -0.035966 -0.032048 -0.002605 -0.110995 0.016552 0.054427
beliau -0.114304 0.044483 0.073655 -0.138127 0.105941 -0.014690 0.127202 0.025974 -0.166571 0.085522 0.035349 -0.174950 0.012898 -0.135075 0.026276 -0.035793 -0.142503 -0.065362 -0.035638 -0.056815 -0.031069 0.160698 -0.079268 0.078890 -0.000807 -0.022899 -0.012747 -0.004089 0.127231 -0.212010 0.002737 -0.131911 -0.106237 0.124260 -0.053882 -0.056893 0.114153 -0.006472 -0.040668 0.125787 -0.000635 -0.003816 -0.075422 0.029510 0.119234 0.073372 0.049716 0.181323 0.114952 -0.222587 0.098652 0.134327 0.037922 0.201491 -0.244496 0.110346 0.025687 0.088487 -0.024491 -0.273458 -0.085196 0.059288 -0.107026 0.065291 0.014892 -0.161436 -0.152440 0.023293 -0.122805 0.010918 0.073295 -0.005180 -0.074550 -0.105882 0.027466 -0.075074 0.126065 0.000406 0.117172 -0.075441 0.202289 0.070103 0.032679 0.288232 0.047369 0.040853 0.221895 0.136614 0.023678 -0.010888 -0.234478 -0.002988 -0.071371 -0.035099 -0.069720 -0.049244 -0.007287 -0.174250 0.024262 0.082266
mudah -0.070220 0.022699 0.038556 -0.090662 0.067099 -0.010413 0.074156 0.018276 -0.094781 0.053691 0.019092 -0.105188 0.007791 -0.075122 0.013911 -0.023052 -0.085470 -0.039419 -0.025189 -0.036265 -0.013761 0.095213 -0.046448 0.040463 -0.003201 -0.009186 -0.008729 0.001080 0.083083 -0.127600 0.009114 -0.077928 -0.062718 0.079121 -0.027536 -0.036581 0.074573 -0.006377 -0.028765 0.079934 -0.002126 -0.001744 -0.040986 0.016295 0.064346 0.036228 0.029230 0.107929 0.076442 -0.128017 0.066915 0.083908 0.020719 0.127005 -0.147533 0.063789 0.014882 0.053311 -0.019190 -0.164016 -0.054266 0.036590 -0.065113 0.038514 0.004102 -0.096601 -0.097867 0.013826 -0.070360 0.006961 0.044891 0.001328 -0.040680 -0.066339 0.021799 -0.046820 0.076192 0.005869 0.069790 -0.048842 0.125454 0.040330 0.025013 0.172911 0.032620 0.024502 0.134442 0.080860 0.016534 -0.008403 -0.136665 -0.003225 -0.039449 -0.017961 -0.042145 -0.035046 -0.007500 -0.102896 0.014460 0.054471
rekomendasi -0.050983 0.025309 0.031562 -0.063440 0.048877 -0.008014 0.062667 0.010307 -0.070612 0.042525 0.021046 -0.083043 0.008765 -0.061157 0.004964 -0.014464 -0.064060 -0.033948 -0.024836 -0.021455 -0.013571 0.072988 -0.037990 0.037688 -0.003051 -0.006967 -0.003548 0.001975 0.055949 -0.103539 -0.000901 -0.056873 -0.046426 0.060782 -0.022055 -0.024862 0.053504 -0.005486 -0.015390 0.061719 -0.002890 -0.006839 -0.030100 0.017627 0.053626 0.030644 0.026672 0.079413 0.057234 -0.095960 0.043948 0.068749 0.020190 0.098022 -0.116256 0.046901 0.010018 0.042669 -0.015831 -0.131943 -0.041513 0.020646 -0.054990 0.033105 0.004646 -0.071339 -0.073408 0.009247 -0.051058 0.005850 0.032703 -0.004247 -0.028905 -0.051124 0.015998 -0.037684 0.050174 0.003296 0.051654 -0.040427 0.090290 0.032612 0.018689 0.131235 0.024936 0.022274 0.107740 0.059102 0.017261 -0.004354 -0.106404 -0.002299 -0.032230 -0.017549 -0.028501 -0.028068 -0.001427 -0.078589 0.006990 0.038029
Berikan -0.080114 0.027311 0.055291 -0.105208 0.076497 -0.013122 0.090249 0.016640 -0.110543 0.065594 0.029380 -0.122576 0.007352 -0.096677 0.016885 -0.022742 -0.101614 -0.047626 -0.031034 -0.044969 -0.020758 0.120777 -0.055692 0.055960 -0.003777 -0.008669 -0.011358 -0.005935 0.092431 -0.148664 0.006774 -0.092904 -0.076147 0.090887 -0.039706 -0.036857 0.077313 -0.007990 -0.029735 0.090788 -0.000337 -0.010647 -0.047542 0.022998 0.074717 0.048321 0.033563 0.125420 0.083041 -0.154603 0.069799 0.096039 0.028511 0.145818 -0.167786 0.077292 0.021324 0.067200 -0.013934 -0.193267 -0.054569 0.037234 -0.071843 0.042463 0.011361 -0.118958 -0.106256 0.016503 -0.086357 0.009853 0.057056 -0.001129 -0.044869 -0.068210 0.022195 -0.057106 0.088138 0.002335 0.086623 -0.053755 0.141969 0.042648 0.024232 0.205053 0.040276 0.026375 0.153321 0.089212 0.015823 -0.000891 -0.169949 -0.008673 -0.046998 -0.017095 -0.044756 -0.033695 -0.007370 -0.121080 0.016447 0.062104
online -0.065333 0.027049 0.045186 -0.088379 0.065618 -0.008091 0.075798 0.018528 -0.104816 0.052024 0.025683 -0.110465 0.004217 -0.085791 0.010498 -0.015294 -0.087267 -0.046657 -0.025434 -0.031618 -0.016444 0.107890 -0.052253 0.042821 -0.000184 -0.008590 -0.005535 -0.007811 0.078924 -0.134082 0.004255 -0.074029 -0.062882 0.079086 -0.030746 -0.036446 0.070490 -0.006238 -0.022147 0.079115 -0.006956 -0.001613 -0.044568 0.020842 0.067085 0.039556 0.030794 0.107121 0.076205 -0.138305 0.067039 0.087192 0.028037 0.127395 -0.147829 0.068543 0.014927 0.056725 -0.015269 -0.170491 -0.050070 0.036965 -0.071021 0.038551 0.004618 -0.101566 -0.100042 0.013733 -0.073332 0.002585 0.048535 -0.005594 -0.046782 -0.060277 0.017507 -0.047929 0.078317 -0.001880 0.076511 -0.053688 0.123165 0.044684 0.027122 0.179413 0.032536 0.024320 0.143384 0.076283 0.017200 -0.005594 -0.144738 -0.004493 -0.040163 -0.018731 -0.042746 -0.036399 -0.005645 -0.111010 0.017293 0.055904
mahasiswanya -0.090358 0.035950 0.060927 -0.114910 0.084628 -0.010945 0.106454 0.017235 -0.134537 0.069156 0.028657 -0.149739 0.008088 -0.108942 0.020738 -0.022607 -0.112178 -0.051100 -0.036064 -0.048620 -0.021946 0.137667 -0.061518 0.066420 0.002607 -0.012183 -0.015571 -0.006818 0.105273 -0.175231 0.004457 -0.100350 -0.085860 0.097142 -0.039320 -0.044216 0.092615 -0.009439 -0.033404 0.106789 -0.006983 -0.007754 -0.055949 0.020643 0.096154 0.054301 0.045088 0.147437 0.103064 -0.174642 0.084433 0.115466 0.030761 0.169301 -0.197429 0.086865 0.024306 0.076359 -0.019146 -0.223729 -0.064663 0.047597 -0.089041 0.053414 0.005277 -0.135251 -0.123441 0.028703 -0.101898 0.007436 0.064975 -0.004990 -0.050947 -0.085639 0.030947 -0.065023 0.100380 -0.000026 0.096685 -0.069280 0.160239 0.053446 0.036935 0.237231 0.044166 0.040801 0.187820 0.110024 0.021127 -0.000823 -0.186697 -0.004592 -0.056512 -0.022926 -0.053492 -0.044801 -0.011870 -0.148083 0.018486 0.072080
potensi -0.114066 0.045052 0.081808 -0.149402 0.110822 -0.019113 0.136313 0.029971 -0.167404 0.091674 0.045758 -0.189383 0.013901 -0.133467 0.018980 -0.035245 -0.148995 -0.066559 -0.045346 -0.061884 -0.033583 0.179770 -0.083351 0.075892 0.004294 -0.012208 -0.008791 -0.008962 0.132291 -0.227740 0.010863 -0.129410 -0.112733 0.128675 -0.050900 -0.057234 0.121300 -0.009407 -0.040287 0.134456 -0.004525 -0.007308 -0.073436 0.027043 0.114818 0.074546 0.051541 0.191878 0.121257 -0.225952 0.104864 0.150333 0.038837 0.218655 -0.261960 0.111415 0.035049 0.093999 -0.033594 -0.296018 -0.091358 0.056413 -0.114790 0.065035 0.005972 -0.174790 -0.165188 0.026798 -0.131194 0.003756 0.082050 -0.005777 -0.069988 -0.104674 0.035930 -0.073747 0.126514 -0.002407 0.124345 -0.082718 0.216118 0.074937 0.036215 0.298430 0.052328 0.052046 0.235645 0.142074 0.028448 -0.002769 -0.251894 -0.005847 -0.077152 -0.033059 -0.066830 -0.055918 -0.012141 -0.192647 0.020238 0.083475
fokus -0.086882 0.031838 0.059698 -0.107199 0.076878 -0.018848 0.100122 0.021696 -0.123896 0.071985 0.033355 -0.140110 0.006463 -0.102810 0.019653 -0.028084 -0.109117 -0.055059 -0.029573 -0.047887 -0.025619 0.127681 -0.062017 0.057742 0.001961 -0.008698 -0.008276 -0.002446 0.094504 -0.159303 0.007461 -0.095075 -0.078630 0.100006 -0.035003 -0.037972 0.090637 -0.009379 -0.031776 0.097345 -0.001605 -0.009882 -0.056271 0.023963 0.078893 0.046943 0.039307 0.135828 0.087804 -0.165419 0.081169 0.110319 0.027003 0.158194 -0.188469 0.083328 0.021919 0.074253 -0.022519 -0.204308 -0.061860 0.038431 -0.081223 0.047388 0.010260 -0.122166 -0.123450 0.019798 -0.088132 0.002653 0.053913 0.003299 -0.047255 -0.080853 0.025170 -0.061870 0.093671 0.000964 0.094896 -0.064829 0.147870 0.049767 0.033764 0.222053 0.044871 0.031903 0.174595 0.102136 0.020770 -0.004697 -0.179599 0.000729 -0.058499 -0.018940 -0.054062 -0.039090 -0.009175 -0.141164 0.017342 0.063084
menunjang -0.084558 0.038768 0.050373 -0.107719 0.074421 -0.012613 0.089106 0.020687 -0.119734 0.062292 0.028193 -0.128149 0.008535 -0.090856 0.017051 -0.019261 -0.104105 -0.046421 -0.030586 -0.041134 -0.020182 0.118968 -0.058207 0.050964 -0.003942 -0.012110 -0.012599 0.000292 0.093383 -0.156777 0.004792 -0.094347 -0.072606 0.090720 -0.036822 -0.038121 0.086473 -0.003351 -0.030694 0.086656 -0.001720 -0.009296 -0.054414 0.022803 0.086377 0.047815 0.030981 0.126751 0.087768 -0.160563 0.071916 0.096401 0.032799 0.149825 -0.181168 0.078151 0.025830 0.072955 -0.022199 -0.201720 -0.064131 0.036365 -0.073845 0.041118 0.002710 -0.121385 -0.109997 0.026154 -0.085105 0.008778 0.056333 0.001745 -0.052308 -0.069378 0.020017 -0.052962 0.087285 0.003561 0.092917 -0.062964 0.145403 0.052502 0.030078 0.211623 0.042818 0.033892 0.164314 0.090060 0.022072 -0.000240 -0.173830 -0.007735 -0.047398 -0.017648 -0.047204 -0.040869 -0.012134 -0.127717 0.019988 0.066104
kasih -0.061666 0.024355 0.039756 -0.085984 0.060721 -0.012913 0.077651 0.018517 -0.094984 0.054474 0.024608 -0.105016 0.004876 -0.078105 0.011359 -0.013242 -0.081063 -0.038473 -0.020651 -0.032645 -0.021185 0.091304 -0.042275 0.039561 0.000303 -0.015261 -0.005280 -0.005526 0.074157 -0.122992 0.004901 -0.075196 -0.061538 0.069345 -0.032376 -0.032246 0.064734 -0.001214 -0.021715 0.076781 -0.000657 -0.009932 -0.046496 0.016456 0.061211 0.036858 0.031979 0.098502 0.070398 -0.122062 0.059047 0.076500 0.019716 0.112229 -0.140662 0.061219 0.022310 0.058548 -0.015638 -0.155316 -0.048458 0.029387 -0.064796 0.030204 0.009505 -0.098656 -0.087149 0.020583 -0.073428 0.003451 0.037692 0.000346 -0.039605 -0.057209 0.021564 -0.038390 0.068624 0.001531 0.074754 -0.050680 0.113795 0.038768 0.021396 0.162973 0.028662 0.024923 0.130834 0.079549 0.012407 0.001066 -0.133589 -0.005944 -0.036856 -0.016619 -0.039597 -0.028080 -0.001979 -0.103505 0.011020 0.046804
kesempatan -0.087324 0.035316 0.056441 -0.111293 0.079017 -0.018726 0.098150 0.019211 -0.123799 0.070613 0.029756 -0.134791 0.007892 -0.101226 0.012582 -0.026407 -0.108405 -0.051036 -0.032852 -0.046142 -0.022782 0.123491 -0.059973 0.057471 0.001472 -0.010399 -0.010928 0.001160 0.102083 -0.169749 0.002967 -0.097958 -0.079273 0.097769 -0.038503 -0.036216 0.091553 -0.010496 -0.035072 0.092799 -0.005609 -0.008891 -0.052039 0.022871 0.083255 0.052523 0.036109 0.132680 0.097310 -0.168464 0.081482 0.107304 0.035124 0.158858 -0.189362 0.088877 0.027809 0.070167 -0.019397 -0.211736 -0.064548 0.040547 -0.078710 0.044522 0.009715 -0.120824 -0.122808 0.026105 -0.088250 0.005363 0.058494 -0.000734 -0.055605 -0.081071 0.024671 -0.062415 0.088629 -0.002393 0.089965 -0.059521 0.155514 0.055213 0.034016 0.219082 0.036829 0.037434 0.173220 0.094504 0.025860 0.000104 -0.182670 -0.001266 -0.050188 -0.019735 -0.051142 -0.040233 -0.011562 -0.140290 0.015774 0.067187
udah -0.083774 0.042727 0.057679 -0.107303 0.079042 -0.014674 0.094000 0.019630 -0.125008 0.069459 0.024123 -0.142843 0.007726 -0.104514 0.015597 -0.021038 -0.109749 -0.056704 -0.029274 -0.047429 -0.029109 0.122523 -0.065444 0.059904 -0.005062 -0.018187 -0.014948 -0.001871 0.096398 -0.165795 0.007401 -0.101123 -0.073696 0.097976 -0.035831 -0.041852 0.088825 -0.011095 -0.030044 0.091302 -0.002030 -0.001411 -0.057609 0.019492 0.082764 0.054537 0.035673 0.141119 0.093328 -0.162104 0.083004 0.107888 0.025974 0.153513 -0.186494 0.086956 0.019828 0.071003 -0.017398 -0.215104 -0.059881 0.044658 -0.083227 0.042668 0.006171 -0.123859 -0.125770 0.018293 -0.098256 0.010244 0.053942 0.001276 -0.048907 -0.079974 0.019888 -0.054149 0.092963 0.007737 0.099297 -0.061329 0.153142 0.055450 0.032649 0.219009 0.040405 0.030109 0.172686 0.100230 0.026436 -0.006758 -0.177886 -0.002790 -0.056081 -0.024531 -0.048642 -0.036122 -0.004617 -0.138495 0.014357 0.066689
